<?xml version="1.0"?>
<opencv_storage>
<stage2>
  <maxWeakCount>10</maxWeakCount>
  <stageThreshold>-1.6356179714202881e+00</stageThreshold>
  <weakClassifiers>
    <_>
      <internalNodes>
        0 -1 348948 -1.3954739188193344e-05</internalNodes>
      <leafValues>
        2.3233908414840698e-01 -7.5086903572082520e-01</leafValues></_>
    <_>
      <internalNodes>
        0 -1 172812 2.3175250738859177e-02</internalNodes>
      <leafValues>
        -5.9498059749603271e-01 4.4893768429756165e-01</leafValues></_>
    <_>
      <internalNodes>
        0 -1 412283 -5.8172288117930293e-04</internalNodes>
      <leafValues>
        6.9269633293151855e-01 -3.2639044523239136e-01</leafValues></_>
    <_>
      <internalNodes>
        0 -1 393422 -4.2000261601060629e-04</internalNodes>
      <leafValues>
        6.4947026968002319e-01 -2.4096882343292236e-01</leafValues></_>
    <_>
      <internalNodes>
        0 -1 392766 -1.4232669491320848e-03</internalNodes>
      <leafValues>
        5.9235227108001709e-01 -3.0302229523658752e-01</leafValues></_>
    <_>
      <internalNodes>
        0 -1 233681 -4.4777180301025510e-04</internalNodes>
      <leafValues>
        7.2631078958511353e-01 -2.2423265874385834e-01</leafValues></_>
    <_>
      <internalNodes>
        0 -1 233681 3.9275671588256955e-04</internalNodes>
      <leafValues>
        -2.3580156266689301e-01 7.0194226503372192e-01</leafValues></_>
    <_>
      <internalNodes>
        0 -1 308136 -3.6463802098296583e-04</internalNodes>
      <leafValues>
        5.8321917057037354e-01 -2.1892283856868744e-01</leafValues></_>
    <_>
      <internalNodes>
        0 -1 332991 -4.7373177949339151e-04</internalNodes>
      <leafValues>
        7.1217727661132812e-01 -2.1418933570384979e-01</leafValues></_>
    <_>
      <internalNodes>
        0 -1 332991 3.6638579331338406e-04</internalNodes>
      <leafValues>
        -2.8638315200805664e-01 6.7161768674850464e-01</leafValues></_></weakClassifiers></stage2>
</opencv_storage>
