<?xml version="1.0"?>
<opencv_storage>
<stage1>
  <maxWeakCount>10</maxWeakCount>
  <stageThreshold>-1.9619137048721313e+00</stageThreshold>
  <weakClassifiers>
    <_>
      <internalNodes>
        0 -1 393430 -1.2430520728230476e-03</internalNodes>
      <leafValues>
        7.3333334922790527e-01 -5.7546013593673706e-01</leafValues></_>
    <_>
      <internalNodes>
        0 -1 279301 4.4765864731743932e-04</internalNodes>
      <leafValues>
        -3.2199609279632568e-01 8.1544935703277588e-01</leafValues></_>
    <_>
      <internalNodes>
        0 -1 279301 -2.1814406500197947e-04</internalNodes>
      <leafValues>
        7.4290007352828979e-01 -3.2759100198745728e-01</leafValues></_>
    <_>
      <internalNodes>
        0 -1 320766 6.0550915077328682e-04</internalNodes>
      <leafValues>
        -2.0818339288234711e-01 7.6331365108489990e-01</leafValues></_>
    <_>
      <internalNodes>
        0 -1 319793 -7.0822349516674876e-04</internalNodes>
      <leafValues>
        7.7347236871719360e-01 -3.2005432248115540e-01</leafValues></_>
    <_>
      <internalNodes>
        0 -1 382836 -4.3213466415181756e-04</internalNodes>
      <leafValues>
        7.5868362188339233e-01 -2.3022495210170746e-01</leafValues></_>
    <_>
      <internalNodes>
        0 -1 14582 2.8204813599586487e-02</internalNodes>
      <leafValues>
        -4.3391513824462891e-01 4.5983013510704041e-01</leafValues></_>
    <_>
      <internalNodes>
        0 -1 348948 -1.5403709767269902e-05</internalNodes>
      <leafValues>
        4.2591157555580139e-01 -4.6060889959335327e-01</leafValues></_>
    <_>
      <internalNodes>
        0 -1 421729 -1.4036463107913733e-03</internalNodes>
      <leafValues>
        8.0923819541931152e-01 -2.2819170355796814e-01</leafValues></_>
    <_>
      <internalNodes>
        0 -1 322837 -4.9556368030607700e-03</internalNodes>
      <leafValues>
        -9.0604865550994873e-01 2.5056663155555725e-01</leafValues></_></weakClassifiers></stage1>
</opencv_storage>
