<?xml version="1.0"?>
<opencv_storage>
<cascade>
  <stageType>BOOST</stageType>
  <featureType>HAAR</featureType>
  <height>20</height>
  <width>40</width>
  <stageParams>
    <boostType>GAB</boostType>
    <minHitRate>9.9900001287460327e-01</minHitRate>
    <maxFalseAlarm>5.0000000000000000e-01</maxFalseAlarm>
    <weightTrimRate>9.4999999999999996e-01</weightTrimRate>
    <maxDepth>1</maxDepth>
    <maxWeakCount>100</maxWeakCount></stageParams>
  <featureParams>
    <maxCatCount>0</maxCatCount>
    <featSize>1</featSize>
    <mode>ALL</mode></featureParams>
  <stageNum>20</stageNum>
  <stages>
    <!-- stage 0 -->
    <_>
      <maxWeakCount>5</maxWeakCount>
      <stageThreshold>-1.5248503684997559e+00</stageThreshold>
      <weakClassifiers>
        <_>
          <internalNodes>
            0 -1 141 2.5658002123236656e-03</internalNodes>
          <leafValues>
            -8.0561327934265137e-01 6.6624367237091064e-01</leafValues></_>
        <_>
          <internalNodes>
            0 -1 25 3.2832425087690353e-02</internalNodes>
          <leafValues>
            -6.0029965639114380e-01 5.9298914670944214e-01</leafValues></_>
        <_>
          <internalNodes>
            0 -1 339 2.0634241082007065e-05</internalNodes>
          <leafValues>
            -5.3699094057083130e-01 5.5932211875915527e-01</leafValues></_>
        <_>
          <internalNodes>
            0 -1 276 3.9813301555113867e-05</internalNodes>
          <leafValues>
            -2.9891461133956909e-01 7.6564168930053711e-01</leafValues></_>
        <_>
          <internalNodes>
            0 -1 243 3.1931389821693301e-04</internalNodes>
          <leafValues>
            -3.4758821129798889e-01 7.4240702390670776e-01</leafValues></_></weakClassifiers></_>
    <!-- stage 1 -->
    <_>
      <maxWeakCount>9</maxWeakCount>
      <stageThreshold>-1.9952883720397949e+00</stageThreshold>
      <weakClassifiers>
        <_>
          <internalNodes>
            0 -1 2 3.3144891262054443e-02</internalNodes>
          <leafValues>
            -6.0875773429870605e-01 5.5682629346847534e-01</leafValues></_>
        <_>
          <internalNodes>
            0 -1 460 -1.5267650596797466e-03</internalNodes>
          <leafValues>
            7.5805449485778809e-01 -3.3496761322021484e-01</leafValues></_>
        <_>
          <internalNodes>
            0 -1 434 -8.1825099186971784e-04</internalNodes>
          <leafValues>
            7.6361179351806641e-01 -2.8840762376785278e-01</leafValues></_>
        <_>
          <internalNodes>
            0 -1 335 3.9571025990881026e-04</internalNodes>
          <leafValues>
            -2.5919103622436523e-01 7.3271960020065308e-01</leafValues></_>
        <_>
          <internalNodes>
            0 -1 330 -4.1772783151827753e-04</internalNodes>
          <leafValues>
            7.0883142948150635e-01 -3.0331504344940186e-01</leafValues></_>
        <_>
          <internalNodes>
            0 -1 342 -1.3890037735109217e-05</internalNodes>
          <leafValues>
            4.5914506912231445e-01 -3.8829892873764038e-01</leafValues></_>
        <_>
          <internalNodes>
            0 -1 328 2.5698373792693019e-04</internalNodes>
          <leafValues>
            -2.8538823127746582e-01 6.0472816228866577e-01</leafValues></_>
        <_>
          <internalNodes>
            0 -1 498 1.9629853777587414e-03</internalNodes>
          <leafValues>
            -2.4908025562763214e-01 6.8462979793548584e-01</leafValues></_>
        <_>
          <internalNodes>
            0 -1 120 4.0516004082746804e-04</internalNodes>
          <leafValues>
            -1.6799829900264740e-01 7.4650967121124268e-01</leafValues></_></weakClassifiers></_>
    <!-- stage 2 -->
    <_>
      <maxWeakCount>17</maxWeakCount>
      <stageThreshold>-1.9811378717422485e+00</stageThreshold>
      <weakClassifiers>
        <_>
          <internalNodes>
            0 -1 23 6.2605005502700806e-01</internalNodes>
          <leafValues>
            -4.4950953125953674e-01 7.4236536026000977e-01</leafValues></_>
        <_>
          <internalNodes>
            0 -1 194 5.1871966570615768e-04</internalNodes>
          <leafValues>
            -2.2899572551250458e-01 7.2471243143081665e-01</leafValues></_>
        <_>
          <internalNodes>
            0 -1 194 -3.8468971615657210e-04</internalNodes>
          <leafValues>
            7.2346973419189453e-01 -3.7213274836540222e-01</leafValues></_>
        <_>
          <internalNodes>
            0 -1 367 6.7506730556488037e-04</internalNodes>
          <leafValues>
            -1.8588602542877197e-01 7.2124135494232178e-01</leafValues></_>
        <_>
          <internalNodes>
            0 -1 367 -5.0189788453280926e-04</internalNodes>
          <leafValues>
            7.3755431175231934e-01 -2.2075487673282623e-01</leafValues></_>
        <_>
          <internalNodes>
            0 -1 127 -8.5556169506162405e-04</internalNodes>
          <leafValues>
            7.0850461721420288e-01 -1.9516067206859589e-01</leafValues></_>
        <_>
          <internalNodes>
            0 -1 88 2.5334358215332031e-03</internalNodes>
          <leafValues>
            -1.9949266314506531e-01 6.9631260633468628e-01</leafValues></_>
        <_>
          <internalNodes>
            0 -1 400 4.4796912698075175e-04</internalNodes>
          <leafValues>
            -2.1494588255882263e-01 6.0911935567855835e-01</leafValues></_>
        <_>
          <internalNodes>
            0 -1 342 -6.1269138313946314e-06</internalNodes>
          <leafValues>
            3.8750189542770386e-01 -3.5003533959388733e-01</leafValues></_>
        <_>
          <internalNodes>
            0 -1 236 -9.9172955378890038e-04</internalNodes>
          <leafValues>
            5.4382389783859253e-01 -2.6343870162963867e-01</leafValues></_>
        <_>
          <internalNodes>
            0 -1 285 -4.5479543041437864e-04</internalNodes>
          <leafValues>
            -7.7825641632080078e-01 2.3545138537883759e-01</leafValues></_>
        <_>
          <internalNodes>
            0 -1 293 4.2615522397682071e-04</internalNodes>
          <leafValues>
            1.1471398919820786e-01 -8.7093997001647949e-01</leafValues></_>
        <_>
          <internalNodes>
            0 -1 32 2.6933755725622177e-03</internalNodes>
          <leafValues>
            -2.5142738223075867e-01 5.9292888641357422e-01</leafValues></_>
        <_>
          <internalNodes>
            0 -1 453 1.5677686315029860e-03</internalNodes>
          <leafValues>
            -2.3348492383956909e-01 5.3771388530731201e-01</leafValues></_>
        <_>
          <internalNodes>
            0 -1 123 3.5315501736477017e-04</internalNodes>
          <leafValues>
            -2.1769103407859802e-01 5.4002881050109863e-01</leafValues></_>
        <_>
          <internalNodes>
            0 -1 497 -4.2854080675169826e-04</internalNodes>
          <leafValues>
            5.6989455223083496e-01 -2.0771978795528412e-01</leafValues></_>
        <_>
          <internalNodes>
            0 -1 270 3.7711748154833913e-04</internalNodes>
          <leafValues>
            -2.3588511347770691e-01 4.9204507470130920e-01</leafValues></_></weakClassifiers></_>
    <!-- stage 3 -->
    <_>
      <maxWeakCount>18</maxWeakCount>
      <stageThreshold>-1.9681369066238403e+00</stageThreshold>
      <weakClassifiers>
        <_>
          <internalNodes>
            0 -1 139 -1.2185994535684586e-02</internalNodes>
          <leafValues>
            3.8788455724716187e-01 -5.7785284519195557e-01</leafValues></_>
        <_>
          <internalNodes>
            0 -1 201 1.3040574267506599e-03</internalNodes>
          <leafValues>
            -5.0430595874786377e-01 3.8311654329299927e-01</leafValues></_>
        <_>
          <internalNodes>
            0 -1 460 -2.9355143196880817e-03</internalNodes>
          <leafValues>
            6.7241120338439941e-01 -2.4980936944484711e-01</leafValues></_>
        <_>
          <internalNodes>
            0 -1 460 1.4490343164652586e-03</internalNodes>
          <leafValues>
            -3.0441224575042725e-01 5.9355598688125610e-01</leafValues></_>
        <_>
          <internalNodes>
            0 -1 287 -1.2270107617950998e-05</internalNodes>
          <leafValues>
            4.3434888124465942e-01 -3.6083626747131348e-01</leafValues></_>
        <_>
          <internalNodes>
            0 -1 386 -5.6932428851723671e-03</internalNodes>
          <leafValues>
            5.2677005529403687e-01 -2.1602305769920349e-01</leafValues></_>
        <_>
          <internalNodes>
            0 -1 253 -1.3588633919425774e-05</internalNodes>
          <leafValues>
            3.4338837862014771e-01 -3.4070345759391785e-01</leafValues></_>
        <_>
          <internalNodes>
            0 -1 404 1.3386370483203791e-05</internalNodes>
          <leafValues>
            -2.2836577892303467e-01 4.5069211721420288e-01</leafValues></_>
        <_>
          <internalNodes>
            0 -1 153 4.7637324314564466e-04</internalNodes>
          <leafValues>
            -2.2770446538925171e-01 5.2430689334869385e-01</leafValues></_>
        <_>
          <internalNodes>
            0 -1 239 4.9444026080891490e-04</internalNodes>
          <leafValues>
            -1.9321091473102570e-01 6.1673152446746826e-01</leafValues></_>
        <_>
          <internalNodes>
            0 -1 239 -3.3851555781438947e-04</internalNodes>
          <leafValues>
            5.2094489336013794e-01 -2.5273373723030090e-01</leafValues></_>
        <_>
          <internalNodes>
            0 -1 251 -3.9394461782649159e-04</internalNodes>
          <leafValues>
            -8.0096453428268433e-01 1.5709090232849121e-01</leafValues></_>
        <_>
          <internalNodes>
            0 -1 153 -4.1309173684567213e-04</internalNodes>
          <leafValues>
            5.6928819417953491e-01 -2.5525245070457458e-01</leafValues></_>
        <_>
          <internalNodes>
            0 -1 499 -1.3451983686536551e-03</internalNodes>
          <leafValues>
            5.1859933137893677e-01 -2.1831300854682922e-01</leafValues></_>
        <_>
          <internalNodes>
            0 -1 85 1.2219364754855633e-02</internalNodes>
          <leafValues>
            1.5367256104946136e-01 -7.3097252845764160e-01</leafValues></_>
        <_>
          <internalNodes>
            0 -1 388 -5.1583033055067062e-02</internalNodes>
          <leafValues>
            -7.4581891298294067e-01 1.4508257806301117e-01</leafValues></_>
        <_>
          <internalNodes>
            0 -1 410 1.4156169527268503e-05</internalNodes>
          <leafValues>
            -2.6941668987274170e-01 4.6861898899078369e-01</leafValues></_>
        <_>
          <internalNodes>
            0 -1 372 -1.4310514416138176e-05</internalNodes>
          <leafValues>
            3.1718689203262329e-01 -3.8022696971893311e-01</leafValues></_></weakClassifiers></_>
    <!-- stage 4 -->
    <_>
      <maxWeakCount>17</maxWeakCount>
      <stageThreshold>-1.9387482404708862e+00</stageThreshold>
      <weakClassifiers>
        <_>
          <internalNodes>
            0 -1 437 -4.4725332409143448e-03</internalNodes>
          <leafValues>
            3.1717172265052795e-01 -5.9377652406692505e-01</leafValues></_>
        <_>
          <internalNodes>
            0 -1 122 -5.3171035833656788e-03</internalNodes>
          <leafValues>
            7.9151839017868042e-01 -2.0680384337902069e-01</leafValues></_>
        <_>
          <internalNodes>
            0 -1 157 5.4716336308047175e-04</internalNodes>
          <leafValues>
            -2.0799686014652252e-01 6.3765400648117065e-01</leafValues></_>
        <_>
          <internalNodes>
            0 -1 157 -4.0014722617343068e-04</internalNodes>
          <leafValues>
            5.8647841215133667e-01 -2.2240288555622101e-01</leafValues></_>
        <_>
          <internalNodes>
            0 -1 331 8.7514752522110939e-04</internalNodes>
          <leafValues>
            -2.2639520466327667e-01 5.9760850667953491e-01</leafValues></_>
        <_>
          <internalNodes>
            0 -1 418 3.2666555489413440e-04</internalNodes>
          <leafValues>
            -1.9726406037807465e-01 6.4450913667678833e-01</leafValues></_>
        <_>
          <internalNodes>
            0 -1 418 -2.1282053785398602e-04</internalNodes>
          <leafValues>
            4.9949178099632263e-01 -2.9631748795509338e-01</leafValues></_>
        <_>
          <internalNodes>
            0 -1 29 1.4193991199135780e-02</internalNodes>
          <leafValues>
            -2.3417904973030090e-01 4.7772818803787231e-01</leafValues></_>
        <_>
          <internalNodes>
            0 -1 205 -1.4206182677298784e-03</internalNodes>
          <leafValues>
            6.0341471433639526e-01 -1.7085936665534973e-01</leafValues></_>
        <_>
          <internalNodes>
            0 -1 90 -2.8208759613335133e-03</internalNodes>
          <leafValues>
            6.4700239896774292e-01 -1.8053573369979858e-01</leafValues></_>
        <_>
          <internalNodes>
            0 -1 461 9.6490117721259594e-04</internalNodes>
          <leafValues>
            -1.6682240366935730e-01 6.0007494688034058e-01</leafValues></_>
        <_>
          <internalNodes>
            0 -1 417 1.1986943718511611e-04</internalNodes>
          <leafValues>
            -2.3008012771606445e-01 4.7923243045806885e-01</leafValues></_>
        <_>
          <internalNodes>
            0 -1 399 3.5413485602475703e-04</internalNodes>
          <leafValues>
            -1.8978579342365265e-01 4.7577181458473206e-01</leafValues></_>
        <_>
          <internalNodes>
            0 -1 361 5.6860506534576416e-02</internalNodes>
          <leafValues>
            1.5341459214687347e-01 -7.6683813333511353e-01</leafValues></_>
        <_>
          <internalNodes>
            0 -1 178 3.4403745085000992e-02</internalNodes>
          <leafValues>
            1.1211585998535156e-01 -7.2124993801116943e-01</leafValues></_>
        <_>
          <internalNodes>
            0 -1 274 1.8695756443776190e-04</internalNodes>
          <leafValues>
            -2.4777358770370483e-01 4.2065715789794922e-01</leafValues></_>
        <_>
          <internalNodes>
            0 -1 274 -2.1988202934153378e-04</internalNodes>
          <leafValues>
            5.1514232158660889e-01 -2.6861387491226196e-01</leafValues></_></weakClassifiers></_>
    <!-- stage 5 -->
    <_>
      <maxWeakCount>22</maxWeakCount>
      <stageThreshold>-2.0823929309844971e+00</stageThreshold>
      <weakClassifiers>
        <_>
          <internalNodes>
            0 -1 10 2.4217709898948669e-01</internalNodes>
          <leafValues>
            -3.8391801714897156e-01 4.9221184849739075e-01</leafValues></_>
        <_>
          <internalNodes>
            0 -1 336 1.5367609448730946e-03</internalNodes>
          <leafValues>
            -2.3305530846118927e-01 5.5894166231155396e-01</leafValues></_>
        <_>
          <internalNodes>
            0 -1 335 -6.3046871218830347e-04</internalNodes>
          <leafValues>
            6.1478245258331299e-01 -2.5854605436325073e-01</leafValues></_>
        <_>
          <internalNodes>
            0 -1 126 1.3767662458121777e-03</internalNodes>
          <leafValues>
            -2.1346333622932434e-01 4.9775487184524536e-01</leafValues></_>
        <_>
          <internalNodes>
            0 -1 459 -7.6616927981376648e-04</internalNodes>
          <leafValues>
            4.5587033033370972e-01 -2.4513842165470123e-01</leafValues></_>
        <_>
          <internalNodes>
            0 -1 434 -1.4016979839652777e-03</internalNodes>
          <leafValues>
            5.2007746696472168e-01 -1.8224653601646423e-01</leafValues></_>
        <_>
          <internalNodes>
            0 -1 378 9.6238427795469761e-04</internalNodes>
          <leafValues>
            1.2240301072597504e-01 -8.5435068607330322e-01</leafValues></_>
        <_>
          <internalNodes>
            0 -1 343 -1.5486060874536633e-05</internalNodes>
          <leafValues>
            2.7385413646697998e-01 -3.8906851410865784e-01</leafValues></_>
        <_>
          <internalNodes>
            0 -1 199 -2.1703853271901608e-03</internalNodes>
          <leafValues>
            5.3284859657287598e-01 -1.8877409398555756e-01</leafValues></_>
        <_>
          <internalNodes>
            0 -1 86 2.3662150488235056e-04</internalNodes>
          <leafValues>
            -1.8485438823699951e-01 5.4328703880310059e-01</leafValues></_>
        <_>
          <internalNodes>
            0 -1 421 -3.1013163970783353e-04</internalNodes>
          <leafValues>
            4.7347599267959595e-01 -2.0900125801563263e-01</leafValues></_>
        <_>
          <internalNodes>
            0 -1 51 -1.0730847716331482e-03</internalNodes>
          <leafValues>
            5.5062675476074219e-01 -1.8529549241065979e-01</leafValues></_>
        <_>
          <internalNodes>
            0 -1 446 -1.5137896407395601e-03</internalNodes>
          <leafValues>
            5.0412541627883911e-01 -1.7499145865440369e-01</leafValues></_>
        <_>
          <internalNodes>
            0 -1 4 1.1525857262313366e-02</internalNodes>
          <leafValues>
            -3.3828493952751160e-01 3.0323874950408936e-01</leafValues></_>
        <_>
          <internalNodes>
            0 -1 229 3.4333389252424240e-02</internalNodes>
          <leafValues>
            9.0943865478038788e-02 -9.3018573522567749e-01</leafValues></_>
        <_>
          <internalNodes>
            0 -1 482 -1.1892332695424557e-03</internalNodes>
          <leafValues>
            5.0370126962661743e-01 -1.9281674921512604e-01</leafValues></_>
        <_>
          <internalNodes>
            0 -1 299 8.7535660713911057e-04</internalNodes>
          <leafValues>
            1.1356092989444733e-01 -8.3734309673309326e-01</leafValues></_>
        <_>
          <internalNodes>
            0 -1 399 -4.0982992504723370e-04</internalNodes>
          <leafValues>
            4.8584386706352234e-01 -2.0838774740695953e-01</leafValues></_>
        <_>
          <internalNodes>
            0 -1 399 2.7953929384239018e-04</internalNodes>
          <leafValues>
            -2.4092575907707214e-01 3.9839282631874084e-01</leafValues></_>
        <_>
          <internalNodes>
            0 -1 504 -2.9320387169718742e-02</internalNodes>
          <leafValues>
            -5.7360690832138062e-01 1.7234516143798828e-01</leafValues></_>
        <_>
          <internalNodes>
            0 -1 107 -3.1994134187698364e-02</internalNodes>
          <leafValues>
            -8.6402702331542969e-01 8.7491318583488464e-02</leafValues></_>
        <_>
          <internalNodes>
            0 -1 235 -3.5482452949509025e-04</internalNodes>
          <leafValues>
            4.5044034719467163e-01 -2.1451000869274139e-01</leafValues></_></weakClassifiers></_>
    <!-- stage 6 -->
    <_>
      <maxWeakCount>22</maxWeakCount>
      <stageThreshold>-1.7977509498596191e+00</stageThreshold>
      <weakClassifiers>
        <_>
          <internalNodes>
            0 -1 52 -2.6206228882074356e-02</internalNodes>
          <leafValues>
            4.7002288699150085e-01 -4.2097610235214233e-01</leafValues></_>
        <_>
          <internalNodes>
            0 -1 171 3.4899250604212284e-03</internalNodes>
          <leafValues>
            -4.0926998853683472e-01 3.0855923891067505e-01</leafValues></_>
        <_>
          <internalNodes>
            0 -1 159 -1.0470787528902292e-03</internalNodes>
          <leafValues>
            4.8861473798751831e-01 -2.1303267776966095e-01</leafValues></_>
        <_>
          <internalNodes>
            0 -1 241 -1.7533276695758104e-03</internalNodes>
          <leafValues>
            5.1188713312149048e-01 -2.4787293374538422e-01</leafValues></_>
        <_>
          <internalNodes>
            0 -1 235 2.6047206483781338e-04</internalNodes>
          <leafValues>
            -1.6748681664466858e-01 5.1232641935348511e-01</leafValues></_>
        <_>
          <internalNodes>
            0 -1 153 1.8759147496894002e-04</internalNodes>
          <leafValues>
            -2.5703868269920349e-01 3.9438158273696899e-01</leafValues></_>
        <_>
          <internalNodes>
            0 -1 403 3.4709968604147434e-03</internalNodes>
          <leafValues>
            1.7631343007087708e-01 -8.0605548620223999e-01</leafValues></_>
        <_>
          <internalNodes>
            0 -1 460 -4.1513992473483086e-03</internalNodes>
          <leafValues>
            5.2730804681777954e-01 -2.2268944978713989e-01</leafValues></_>
        <_>
          <internalNodes>
            0 -1 341 -1.2160342521383427e-05</internalNodes>
          <leafValues>
            2.5103411078453064e-01 -4.1057890653610229e-01</leafValues></_>
        <_>
          <internalNodes>
            0 -1 307 6.4330179156968370e-06</internalNodes>
          <leafValues>
            -2.1406036615371704e-01 4.7437831759452820e-01</leafValues></_>
        <_>
          <internalNodes>
            0 -1 483 -9.1880140826106071e-04</internalNodes>
          <leafValues>
            5.1437330245971680e-01 -1.7431603372097015e-01</leafValues></_>
        <_>
          <internalNodes>
            0 -1 293 -6.3100410625338554e-04</internalNodes>
          <leafValues>
            -8.7614881992340088e-01 1.3910466432571411e-01</leafValues></_>
        <_>
          <internalNodes>
            0 -1 116 -8.8680506451055408e-04</internalNodes>
          <leafValues>
            4.2581123113632202e-01 -2.3707555234432220e-01</leafValues></_>
        <_>
          <internalNodes>
            0 -1 61 7.5553613714873791e-04</internalNodes>
          <leafValues>
            -1.7049957811832428e-01 5.7516855001449585e-01</leafValues></_>
        <_>
          <internalNodes>
            0 -1 153 -1.1807971168309450e-04</internalNodes>
          <leafValues>
            4.0293666720390320e-01 -2.0432969927787781e-01</leafValues></_>
        <_>
          <internalNodes>
            0 -1 485 9.6093351021409035e-04</internalNodes>
          <leafValues>
            -2.1404857933521271e-01 4.0161803364753723e-01</leafValues></_>
        <_>
          <internalNodes>
            0 -1 193 -6.9375038146972656e-02</internalNodes>
          <leafValues>
            -7.0568704605102539e-01 1.3217392563819885e-01</leafValues></_>
        <_>
          <internalNodes>
            0 -1 422 -3.0315929325297475e-04</internalNodes>
          <leafValues>
            4.2004635930061340e-01 -2.1721065044403076e-01</leafValues></_>
        <_>
          <internalNodes>
            0 -1 422 4.0228932630270720e-04</internalNodes>
          <leafValues>
            -2.0356182754039764e-01 4.6007171273231506e-01</leafValues></_>
        <_>
          <internalNodes>
            0 -1 253 -2.2551990696229041e-05</internalNodes>
          <leafValues>
            3.6516854166984558e-01 -2.2759568691253662e-01</leafValues></_>
        <_>
          <internalNodes>
            0 -1 132 1.5393045032396913e-05</internalNodes>
          <leafValues>
            -2.8762629628181458e-01 3.2859238982200623e-01</leafValues></_>
        <_>
          <internalNodes>
            0 -1 235 -1.7738065798766911e-04</internalNodes>
          <leafValues>
            3.5966789722442627e-01 -2.3510660231113434e-01</leafValues></_></weakClassifiers></_>
    <!-- stage 7 -->
    <_>
      <maxWeakCount>25</maxWeakCount>
      <stageThreshold>-1.7432646751403809e+00</stageThreshold>
      <weakClassifiers>
        <_>
          <internalNodes>
            0 -1 164 4.9578160978853703e-03</internalNodes>
          <leafValues>
            -4.6771243214607239e-01 2.4850393831729889e-01</leafValues></_>
        <_>
          <internalNodes>
            0 -1 223 3.2082063262350857e-04</internalNodes>
          <leafValues>
            -4.2915558815002441e-01 2.6235058903694153e-01</leafValues></_>
        <_>
          <internalNodes>
            0 -1 339 3.1009069061838090e-05</internalNodes>
          <leafValues>
            -4.0102475881576538e-01 2.5206187367439270e-01</leafValues></_>
        <_>
          <internalNodes>
            0 -1 486 6.6362153738737106e-03</internalNodes>
          <leafValues>
            -1.5016983449459076e-01 5.6263327598571777e-01</leafValues></_>
        <_>
          <internalNodes>
            0 -1 335 4.3181545333936810e-04</internalNodes>
          <leafValues>
            -2.1409317851066589e-01 4.1019564867019653e-01</leafValues></_>
        <_>
          <internalNodes>
            0 -1 332 -1.7969416221603751e-03</internalNodes>
          <leafValues>
            5.3973352909088135e-01 -2.3470087349414825e-01</leafValues></_>
        <_>
          <internalNodes>
            0 -1 140 -5.9788897633552551e-02</internalNodes>
          <leafValues>
            -6.8291288614273071e-01 1.4977449178695679e-01</leafValues></_>
        <_>
          <internalNodes>
            0 -1 136 -1.7326432280242443e-03</internalNodes>
          <leafValues>
            4.5846486091613770e-01 -1.9354560971260071e-01</leafValues></_>
        <_>
          <internalNodes>
            0 -1 123 8.2215009024366736e-04</internalNodes>
          <leafValues>
            -2.0248574018478394e-01 4.3826073408126831e-01</leafValues></_>
        <_>
          <internalNodes>
            0 -1 189 1.6549665480852127e-02</internalNodes>
          <leafValues>
            1.4812399446964264e-01 -7.7201873064041138e-01</leafValues></_>
        <_>
          <internalNodes>
            0 -1 203 -8.1788009265437722e-04</internalNodes>
          <leafValues>
            4.7994267940521240e-01 -2.0326122641563416e-01</leafValues></_>
        <_>
          <internalNodes>
            0 -1 124 -4.1246131877414882e-04</internalNodes>
          <leafValues>
            4.7371169924736023e-01 -2.0368555188179016e-01</leafValues></_>
        <_>
          <internalNodes>
            0 -1 505 1.3858125021215528e-04</internalNodes>
          <leafValues>
            -3.3960512280464172e-01 2.6480671763420105e-01</leafValues></_>
        <_>
          <internalNodes>
            0 -1 387 3.1300544738769531e-02</internalNodes>
          <leafValues>
            1.0843142122030258e-01 -7.2191399335861206e-01</leafValues></_>
        <_>
          <internalNodes>
            0 -1 471 -6.1701284721493721e-04</internalNodes>
          <leafValues>
            4.1010177135467529e-01 -2.0339408516883850e-01</leafValues></_>
        <_>
          <internalNodes>
            0 -1 407 -3.9608569932170212e-04</internalNodes>
          <leafValues>
            -8.6308461427688599e-01 1.0386737436056137e-01</leafValues></_>
        <_>
          <internalNodes>
            0 -1 372 -1.5193660146906041e-05</internalNodes>
          <leafValues>
            2.3651555180549622e-01 -3.5380920767784119e-01</leafValues></_>
        <_>
          <internalNodes>
            0 -1 424 -1.4493830349238124e-05</internalNodes>
          <leafValues>
            3.2685518264770508e-01 -2.5324970483779907e-01</leafValues></_>
        <_>
          <internalNodes>
            0 -1 441 2.3234546824824065e-04</internalNodes>
          <leafValues>
            -1.4084112644195557e-01 4.8644167184829712e-01</leafValues></_>
        <_>
          <internalNodes>
            0 -1 441 -2.2208632435649633e-04</internalNodes>
          <leafValues>
            4.9129122495651245e-01 -1.7513552308082581e-01</leafValues></_>
        <_>
          <internalNodes>
            0 -1 375 -4.0805188473314047e-04</internalNodes>
          <leafValues>
            -8.1062209606170654e-01 1.0883202403783798e-01</leafValues></_>
        <_>
          <internalNodes>
            0 -1 118 -3.7683532573282719e-03</internalNodes>
          <leafValues>
            4.7343227267265320e-01 -1.8484809994697571e-01</leafValues></_>
        <_>
          <internalNodes>
            0 -1 158 7.0378626696765423e-04</internalNodes>
          <leafValues>
            -1.9075955450534821e-01 4.2246666550636292e-01</leafValues></_>
        <_>
          <internalNodes>
            0 -1 227 -2.4166965857148170e-02</internalNodes>
          <leafValues>
            -7.6767754554748535e-01 1.0100819915533066e-01</leafValues></_>
        <_>
          <internalNodes>
            0 -1 415 -1.5139481984078884e-03</internalNodes>
          <leafValues>
            4.6593433618545532e-01 -1.7675171792507172e-01</leafValues></_></weakClassifiers></_>
    <!-- stage 8 -->
    <_>
      <maxWeakCount>24</maxWeakCount>
      <stageThreshold>-1.7984780073165894e+00</stageThreshold>
      <weakClassifiers>
        <_>
          <internalNodes>
            0 -1 186 4.1950130835175514e-03</internalNodes>
          <leafValues>
            -3.0136507749557495e-01 5.6143081188201904e-01</leafValues></_>
        <_>
          <internalNodes>
            0 -1 243 8.9186104014515877e-04</internalNodes>
          <leafValues>
            -2.0803803205490112e-01 5.4630982875823975e-01</leafValues></_>
        <_>
          <internalNodes>
            0 -1 198 -1.3043635990470648e-03</internalNodes>
          <leafValues>
            4.7985324263572693e-01 -2.7233475446701050e-01</leafValues></_>
        <_>
          <internalNodes>
            0 -1 56 -4.6007297933101654e-03</internalNodes>
          <leafValues>
            2.7863112092018127e-01 -3.1829476356506348e-01</leafValues></_>
        <_>
          <internalNodes>
            0 -1 163 -8.1371015403419733e-04</internalNodes>
          <leafValues>
            4.3750116229057312e-01 -1.9096565246582031e-01</leafValues></_>
        <_>
          <internalNodes>
            0 -1 484 -1.1184402974322438e-03</internalNodes>
          <leafValues>
            4.2962962388992310e-01 -1.7504188418388367e-01</leafValues></_>
        <_>
          <internalNodes>
            0 -1 255 -5.7700509205460548e-04</internalNodes>
          <leafValues>
            -7.9543006420135498e-01 1.1044592410326004e-01</leafValues></_>
        <_>
          <internalNodes>
            0 -1 163 5.0291384104639292e-04</internalNodes>
          <leafValues>
            -2.1454906463623047e-01 3.8485002517700195e-01</leafValues></_>
        <_>
          <internalNodes>
            0 -1 432 -1.1532625649124384e-03</internalNodes>
          <leafValues>
            4.1994497179985046e-01 -1.8287013471126556e-01</leafValues></_>
        <_>
          <internalNodes>
            0 -1 417 3.5544543061405420e-04</internalNodes>
          <leafValues>
            -1.7705519497394562e-01 4.6857839822769165e-01</leafValues></_>
        <_>
          <internalNodes>
            0 -1 169 -2.7386475354433060e-02</internalNodes>
          <leafValues>
            -7.4099522829055786e-01 1.1123300343751907e-01</leafValues></_>
        <_>
          <internalNodes>
            0 -1 367 2.9775002622045577e-04</internalNodes>
          <leafValues>
            -2.4171322584152222e-01 3.7154415249824524e-01</leafValues></_>
        <_>
          <internalNodes>
            0 -1 367 -2.1253476734273136e-04</internalNodes>
          <leafValues>
            4.3302211165428162e-01 -2.1926245093345642e-01</leafValues></_>
        <_>
          <internalNodes>
            0 -1 501 -4.0012830868363380e-03</internalNodes>
          <leafValues>
            3.0446663498878479e-01 -2.4595466256141663e-01</leafValues></_>
        <_>
          <internalNodes>
            0 -1 344 -1.2224435522512067e-05</internalNodes>
          <leafValues>
            2.1625284850597382e-01 -3.6795991659164429e-01</leafValues></_>
        <_>
          <internalNodes>
            0 -1 342 -1.6846854123286903e-04</internalNodes>
          <leafValues>
            -8.1997245550155640e-01 8.3197735249996185e-02</leafValues></_>
        <_>
          <internalNodes>
            0 -1 202 1.9899831386283040e-04</internalNodes>
          <leafValues>
            -2.1946325898170471e-01 3.5366535186767578e-01</leafValues></_>
        <_>
          <internalNodes>
            0 -1 202 -1.6656941443216056e-04</internalNodes>
          <leafValues>
            3.6067312955856323e-01 -2.3079097270965576e-01</leafValues></_>
        <_>
          <internalNodes>
            0 -1 114 2.1813575178384781e-02</internalNodes>
          <leafValues>
            1.2590365111827850e-01 -7.3981106281280518e-01</leafValues></_>
        <_>
          <internalNodes>
            0 -1 53 -4.1332012042403221e-03</internalNodes>
          <leafValues>
            4.6541556715965271e-01 -1.7838598787784576e-01</leafValues></_>
        <_>
          <internalNodes>
            0 -1 283 -1.5527270079473965e-05</internalNodes>
          <leafValues>
            2.5112527608871460e-01 -3.0520075559616089e-01</leafValues></_>
        <_>
          <internalNodes>
            0 -1 410 1.4281014045991469e-05</internalNodes>
          <leafValues>
            -2.1464079618453979e-01 3.7534090876579285e-01</leafValues></_>
        <_>
          <internalNodes>
            0 -1 190 1.6202479600906372e-02</internalNodes>
          <leafValues>
            1.1372860521078110e-01 -6.6302436590194702e-01</leafValues></_>
        <_>
          <internalNodes>
            0 -1 113 1.1090127751231194e-02</internalNodes>
          <leafValues>
            -1.2028847634792328e-01 6.6336852312088013e-01</leafValues></_></weakClassifiers></_>
    <!-- stage 9 -->
    <_>
      <maxWeakCount>27</maxWeakCount>
      <stageThreshold>-1.7367839813232422e+00</stageThreshold>
      <weakClassifiers>
        <_>
          <internalNodes>
            0 -1 30 5.2819263935089111e-01</internalNodes>
          <leafValues>
            -3.1892889738082886e-01 4.5867508649826050e-01</leafValues></_>
        <_>
          <internalNodes>
            0 -1 273 -9.3113532057031989e-04</internalNodes>
          <leafValues>
            5.5212581157684326e-01 -1.8006660044193268e-01</leafValues></_>
        <_>
          <internalNodes>
            0 -1 273 4.4183735735714436e-04</internalNodes>
          <leafValues>
            -3.0828386545181274e-01 4.9081352353096008e-01</leafValues></_>
        <_>
          <internalNodes>
            0 -1 295 5.2725651767104864e-04</internalNodes>
          <leafValues>
            1.4223420619964600e-01 -8.0046904087066650e-01</leafValues></_>
        <_>
          <internalNodes>
            0 -1 92 -4.6216696500778198e-04</internalNodes>
          <leafValues>
            4.3166187405586243e-01 -2.2075003385543823e-01</leafValues></_>
        <_>
          <internalNodes>
            0 -1 49 -1.5930011868476868e-03</internalNodes>
          <leafValues>
            4.6895426511764526e-01 -1.3633981347084045e-01</leafValues></_>
        <_>
          <internalNodes>
            0 -1 194 2.9995752265676856e-04</internalNodes>
          <leafValues>
            -2.1117579936981201e-01 3.8158893585205078e-01</leafValues></_>
        <_>
          <internalNodes>
            0 -1 194 -2.4653534637764096e-04</internalNodes>
          <leafValues>
            3.8234996795654297e-01 -2.3285645246505737e-01</leafValues></_>
        <_>
          <internalNodes>
            0 -1 268 2.5377351790666580e-02</internalNodes>
          <leafValues>
            1.6289374232292175e-01 -7.9840970039367676e-01</leafValues></_>
        <_>
          <internalNodes>
            0 -1 108 -4.5384600758552551e-02</internalNodes>
          <leafValues>
            -8.3285737037658691e-01 7.6221385970711708e-03</leafValues></_>
        <_>
          <internalNodes>
            0 -1 339 2.0605719328159466e-05</internalNodes>
          <leafValues>
            -3.7741661071777344e-01 2.0541477203369141e-01</leafValues></_>
        <_>
          <internalNodes>
            0 -1 495 -4.4921240769326687e-03</internalNodes>
          <leafValues>
            4.8732534050941467e-01 -1.5266482532024384e-01</leafValues></_>
        <_>
          <internalNodes>
            0 -1 492 4.1157356463372707e-03</internalNodes>
          <leafValues>
            -1.6651207208633423e-01 4.9087470769882202e-01</leafValues></_>
        <_>
          <internalNodes>
            0 -1 148 -4.4647715985774994e-03</internalNodes>
          <leafValues>
            4.8535013198852539e-01 -1.1513999104499817e-01</leafValues></_>
        <_>
          <internalNodes>
            0 -1 147 -1.5917802229523659e-03</internalNodes>
          <leafValues>
            4.8989105224609375e-01 -1.4369301497936249e-01</leafValues></_>
        <_>
          <internalNodes>
            0 -1 39 -4.3980903923511505e-02</internalNodes>
          <leafValues>
            -6.6166710853576660e-01 1.1064643412828445e-01</leafValues></_>
        <_>
          <internalNodes>
            0 -1 306 -1.7914564523380250e-05</internalNodes>
          <leafValues>
            2.6186728477478027e-01 -2.3847642540931702e-01</leafValues></_>
        <_>
          <internalNodes>
            0 -1 295 -5.1868299487978220e-04</internalNodes>
          <leafValues>
            -8.7386184930801392e-01 8.9273676276206970e-02</leafValues></_>
        <_>
          <internalNodes>
            0 -1 487 8.4646686445921659e-04</internalNodes>
          <leafValues>
            -1.8236757814884186e-01 4.2128843069076538e-01</leafValues></_>
        <_>
          <internalNodes>
            0 -1 487 -1.8606180674396455e-04</internalNodes>
          <leafValues>
            3.5152670741081238e-01 -2.0421557128429413e-01</leafValues></_>
        <_>
          <internalNodes>
            0 -1 280 1.3806111383019015e-05</internalNodes>
          <leafValues>
            -2.1308645606040955e-01 2.9080894589424133e-01</leafValues></_>
        <_>
          <internalNodes>
            0 -1 278 -7.0505705662071705e-04</internalNodes>
          <leafValues>
            4.1237786412239075e-01 -1.5860278904438019e-01</leafValues></_>
        <_>
          <internalNodes>
            0 -1 328 2.5574228493496776e-04</internalNodes>
          <leafValues>
            -2.0085470378398895e-01 3.3756682276725769e-01</leafValues></_>
        <_>
          <internalNodes>
            0 -1 232 8.6893711704760790e-04</internalNodes>
          <leafValues>
            -1.3153487443923950e-01 4.6145924925804138e-01</leafValues></_>
        <_>
          <internalNodes>
            0 -1 250 -2.1279248176142573e-04</internalNodes>
          <leafValues>
            -6.7481911182403564e-01 1.0101663321256638e-01</leafValues></_>
        <_>
          <internalNodes>
            0 -1 250 1.5089647786226124e-04</internalNodes>
          <leafValues>
            8.6604937911033630e-02 -6.8865245580673218e-01</leafValues></_>
        <_>
          <internalNodes>
            0 -1 428 1.8543190890341066e-05</internalNodes>
          <leafValues>
            -2.0730167627334595e-01 3.5286054015159607e-01</leafValues></_></weakClassifiers></_>
    <!-- stage 10 -->
    <_>
      <maxWeakCount>37</maxWeakCount>
      <stageThreshold>-2.0110664367675781e+00</stageThreshold>
      <weakClassifiers>
        <_>
          <internalNodes>
            0 -1 16 7.0104980468750000e-01</internalNodes>
          <leafValues>
            -2.9321512579917908e-01 6.3492065668106079e-01</leafValues></_>
        <_>
          <internalNodes>
            0 -1 167 3.0324331601150334e-04</internalNodes>
          <leafValues>
            -3.6714646220207214e-01 2.3105525970458984e-01</leafValues></_>
        <_>
          <internalNodes>
            0 -1 405 5.3524895338341594e-04</internalNodes>
          <leafValues>
            -1.8826507031917572e-01 3.8754120469093323e-01</leafValues></_>
        <_>
          <internalNodes>
            0 -1 401 -8.9447142090648413e-04</internalNodes>
          <leafValues>
            4.1925844550132751e-01 -1.9987903535366058e-01</leafValues></_>
        <_>
          <internalNodes>
            0 -1 374 4.5610603410750628e-04</internalNodes>
          <leafValues>
            7.7653221786022186e-02 -8.2116782665252686e-01</leafValues></_>
        <_>
          <internalNodes>
            0 -1 239 5.1660242024809122e-04</internalNodes>
          <leafValues>
            -1.4509223401546478e-01 4.3711298704147339e-01</leafValues></_>
        <_>
          <internalNodes>
            0 -1 239 -4.1019014315679669e-04</internalNodes>
          <leafValues>
            4.4925877451896667e-01 -2.5488746166229248e-01</leafValues></_>
        <_>
          <internalNodes>
            0 -1 219 2.8771562501788139e-03</internalNodes>
          <leafValues>
            1.2931770086288452e-01 -5.7454305887222290e-01</leafValues></_>
        <_>
          <internalNodes>
            0 -1 400 3.3142743632197380e-04</internalNodes>
          <leafValues>
            -2.0438863337039948e-01 3.1310784816741943e-01</leafValues></_>
        <_>
          <internalNodes>
            0 -1 185 5.2849564235657454e-04</internalNodes>
          <leafValues>
            -1.6117876768112183e-01 3.6864885687828064e-01</leafValues></_>
        <_>
          <internalNodes>
            0 -1 185 -4.6521209878847003e-04</internalNodes>
          <leafValues>
            4.5956742763519287e-01 -1.8515084683895111e-01</leafValues></_>
        <_>
          <internalNodes>
            0 -1 288 4.9959118478000164e-03</internalNodes>
          <leafValues>
            7.0099800825119019e-02 -9.5316839218139648e-01</leafValues></_>
        <_>
          <internalNodes>
            0 -1 284 -1.2755303032463416e-05</internalNodes>
          <leafValues>
            2.0587213337421417e-01 -2.8949356079101562e-01</leafValues></_>
        <_>
          <internalNodes>
            0 -1 6 1.7958231183001772e-05</internalNodes>
          <leafValues>
            1.3326755166053772e-01 -4.5551556348800659e-01</leafValues></_>
        <_>
          <internalNodes>
            0 -1 134 -9.9540897645056248e-04</internalNodes>
          <leafValues>
            4.2562726140022278e-01 -1.5795727074146271e-01</leafValues></_>
        <_>
          <internalNodes>
            0 -1 225 -1.9709132611751556e-02</internalNodes>
          <leafValues>
            -6.7425137758255005e-01 9.0095169842243195e-02</leafValues></_>
        <_>
          <internalNodes>
            0 -1 100 1.4758752513444051e-05</internalNodes>
          <leafValues>
            -2.5051382184028625e-01 2.2277452051639557e-01</leafValues></_>
        <_>
          <internalNodes>
            0 -1 48 5.6020796298980713e-02</internalNodes>
          <leafValues>
            8.8851600885391235e-02 -6.7075723409652710e-01</leafValues></_>
        <_>
          <internalNodes>
            0 -1 199 8.1526115536689758e-03</internalNodes>
          <leafValues>
            -1.0552769899368286e-01 6.0876089334487915e-01</leafValues></_>
        <_>
          <internalNodes>
            0 -1 157 5.2050885278731585e-04</internalNodes>
          <leafValues>
            -1.5872904658317566e-01 3.6443573236465454e-01</leafValues></_>
        <_>
          <internalNodes>
            0 -1 320 -1.0387520492076874e-01</internalNodes>
          <leafValues>
            -5.1327252388000488e-01 1.1290582269430161e-01</leafValues></_>
        <_>
          <internalNodes>
            0 -1 463 -5.5585429072380066e-04</internalNodes>
          <leafValues>
            3.0743187665939331e-01 -1.9528807699680328e-01</leafValues></_>
        <_>
          <internalNodes>
            0 -1 451 -5.9514015447348356e-04</internalNodes>
          <leafValues>
            2.9897698760032654e-01 -1.8285413086414337e-01</leafValues></_>
        <_>
          <internalNodes>
            0 -1 179 1.9757970585487783e-04</internalNodes>
          <leafValues>
            -1.6560038924217224e-01 3.4258502721786499e-01</leafValues></_>
        <_>
          <internalNodes>
            0 -1 304 -2.0570703782141209e-04</internalNodes>
          <leafValues>
            -6.7337697744369507e-01 8.1086382269859314e-02</leafValues></_>
        <_>
          <internalNodes>
            0 -1 131 -5.7235098211094737e-04</internalNodes>
          <leafValues>
            3.1379050016403198e-01 -1.8496137857437134e-01</leafValues></_>
        <_>
          <internalNodes>
            0 -1 133 -7.7771372161805630e-04</internalNodes>
          <leafValues>
            3.8327625393867493e-01 -1.4010384678840637e-01</leafValues></_>
        <_>
          <internalNodes>
            0 -1 271 1.0616002604365349e-02</internalNodes>
          <leafValues>
            8.8027581572532654e-02 -6.3199168443679810e-01</leafValues></_>
        <_>
          <internalNodes>
            0 -1 372 -1.3263645996630657e-05</internalNodes>
          <leafValues>
            1.9623056054115295e-01 -3.0602967739105225e-01</leafValues></_>
        <_>
          <internalNodes>
            0 -1 367 1.2630462879315019e-04</internalNodes>
          <leafValues>
            -2.1825557947158813e-01 2.8316473960876465e-01</leafValues></_>
        <_>
          <internalNodes>
            0 -1 367 -2.4264791863970459e-04</internalNodes>
          <leafValues>
            3.4556570649147034e-01 -1.7614075541496277e-01</leafValues></_>
        <_>
          <internalNodes>
            0 -1 509 5.8928446378558874e-05</internalNodes>
          <leafValues>
            1.3912090659141541e-01 -4.1858667135238647e-01</leafValues></_>
        <_>
          <internalNodes>
            0 -1 120 1.9755712128244340e-04</internalNodes>
          <leafValues>
            -1.9733791053295135e-01 3.1194970011711121e-01</leafValues></_>
        <_>
          <internalNodes>
            0 -1 202 4.8815028276294470e-04</internalNodes>
          <leafValues>
            -1.6986007988452911e-01 3.5840794444084167e-01</leafValues></_>
        <_>
          <internalNodes>
            0 -1 324 2.2162005305290222e-02</internalNodes>
          <leafValues>
            8.8431678712368011e-02 -6.5497916936874390e-01</leafValues></_>
        <_>
          <internalNodes>
            0 -1 234 -1.0683782398700714e-02</internalNodes>
          <leafValues>
            -7.4824869632720947e-01 6.4759917557239532e-02</leafValues></_>
        <_>
          <internalNodes>
            0 -1 20 6.6113352659158409e-06</internalNodes>
          <leafValues>
            1.7034365236759186e-01 -3.1644934415817261e-01</leafValues></_></weakClassifiers></_>
    <!-- stage 11 -->
    <_>
      <maxWeakCount>32</maxWeakCount>
      <stageThreshold>-1.5773867368698120e+00</stageThreshold>
      <weakClassifiers>
        <_>
          <internalNodes>
            0 -1 23 7.0378029346466064e-01</internalNodes>
          <leafValues>
            -3.5504367947578430e-01 4.0122199058532715e-01</leafValues></_>
        <_>
          <internalNodes>
            0 -1 209 8.1885221879929304e-04</internalNodes>
          <leafValues>
            -3.1259003281593323e-01 2.2672992944717407e-01</leafValues></_>
        <_>
          <internalNodes>
            0 -1 294 -5.7599134743213654e-04</internalNodes>
          <leafValues>
            -9.3248963356018066e-01 6.3145101070404053e-02</leafValues></_>
        <_>
          <internalNodes>
            0 -1 146 2.8024360653944314e-04</internalNodes>
          <leafValues>
            -1.7152488231658936e-01 3.4255966544151306e-01</leafValues></_>
        <_>
          <internalNodes>
            0 -1 146 -3.6308827111497521e-04</internalNodes>
          <leafValues>
            3.8347283005714417e-01 -1.8114513158798218e-01</leafValues></_>
        <_>
          <internalNodes>
            0 -1 351 1.6749073984101415e-04</internalNodes>
          <leafValues>
            -2.9555281996726990e-01 2.0491041243076324e-01</leafValues></_>
        <_>
          <internalNodes>
            0 -1 318 -4.6082489192485809e-02</internalNodes>
          <leafValues>
            -7.2680211067199707e-01 1.1402682214975357e-01</leafValues></_>
        <_>
          <internalNodes>
            0 -1 253 -2.7570997190196067e-05</internalNodes>
          <leafValues>
            2.1246838569641113e-01 -2.9027131199836731e-01</leafValues></_>
        <_>
          <internalNodes>
            0 -1 254 -1.1837284546345472e-04</internalNodes>
          <leafValues>
            -8.0000525712966919e-01 1.1630639433860779e-01</leafValues></_>
        <_>
          <internalNodes>
            0 -1 283 -3.0568618967663497e-05</internalNodes>
          <leafValues>
            2.2465331852436066e-01 -2.8826716542243958e-01</leafValues></_>
        <_>
          <internalNodes>
            0 -1 385 -3.9737615734338760e-03</internalNodes>
          <leafValues>
            3.7451410293579102e-01 -1.7763140797615051e-01</leafValues></_>
        <_>
          <internalNodes>
            0 -1 142 1.9335718825459480e-02</internalNodes>
          <leafValues>
            7.9228714108467102e-02 -6.8847161531448364e-01</leafValues></_>
        <_>
          <internalNodes>
            0 -1 230 -7.7296078205108643e-02</internalNodes>
          <leafValues>
            -6.8432450294494629e-01 7.5125135481357574e-02</leafValues></_>
        <_>
          <internalNodes>
            0 -1 478 -7.1167983114719391e-03</internalNodes>
          <leafValues>
            4.2956167459487915e-01 -1.4520935714244843e-01</leafValues></_>
        <_>
          <internalNodes>
            0 -1 456 -3.8834793958812952e-03</internalNodes>
          <leafValues>
            3.8082259893417358e-01 -1.6589289903640747e-01</leafValues></_>
        <_>
          <internalNodes>
            0 -1 94 -4.7489150892943144e-04</internalNodes>
          <leafValues>
            3.9682167768478394e-01 -1.2393596768379211e-01</leafValues></_>
        <_>
          <internalNodes>
            0 -1 64 2.1214326261542737e-04</internalNodes>
          <leafValues>
            -1.5074236690998077e-01 4.3590578436851501e-01</leafValues></_>
        <_>
          <internalNodes>
            0 -1 156 -5.2388887852430344e-03</internalNodes>
          <leafValues>
            4.6314924955368042e-01 -1.0885094106197357e-01</leafValues></_>
        <_>
          <internalNodes>
            0 -1 346 -1.1462102702353150e-04</internalNodes>
          <leafValues>
            -6.8495357036590576e-01 8.9440353214740753e-02</leafValues></_>
        <_>
          <internalNodes>
            0 -1 232 -5.3449731785804033e-04</internalNodes>
          <leafValues>
            3.6023753881454468e-01 -1.5914696455001831e-01</leafValues></_>
        <_>
          <internalNodes>
            0 -1 232 2.5179254589602351e-04</internalNodes>
          <leafValues>
            -1.7193539440631866e-01 4.0303573012351990e-01</leafValues></_>
        <_>
          <internalNodes>
            0 -1 63 -6.5729813650250435e-04</internalNodes>
          <leafValues>
            3.5452365875244141e-01 -1.6291753947734833e-01</leafValues></_>
        <_>
          <internalNodes>
            0 -1 370 4.3728370656026527e-05</internalNodes>
          <leafValues>
            -2.4572509527206421e-01 2.4053329229354858e-01</leafValues></_>
        <_>
          <internalNodes>
            0 -1 145 5.0944119691848755e-02</internalNodes>
          <leafValues>
            1.0825312882661819e-01 -5.4099726676940918e-01</leafValues></_>
        <_>
          <internalNodes>
            0 -1 327 -1.2750439345836639e-02</internalNodes>
          <leafValues>
            -8.0237865447998047e-01 6.8857602775096893e-02</leafValues></_>
        <_>
          <internalNodes>
            0 -1 11 -1.3560062507167459e-04</internalNodes>
          <leafValues>
            -4.8876222968101501e-01 9.7101032733917236e-02</leafValues></_>
        <_>
          <internalNodes>
            0 -1 449 -3.4422373864799738e-03</internalNodes>
          <leafValues>
            1.9004097580909729e-01 -2.7321991324424744e-01</leafValues></_>
        <_>
          <internalNodes>
            0 -1 220 2.3612199351191521e-02</internalNodes>
          <leafValues>
            7.4662566184997559e-02 -6.5630918741226196e-01</leafValues></_>
        <_>
          <internalNodes>
            0 -1 144 -5.2731726318597794e-03</internalNodes>
          <leafValues>
            4.2471233010292053e-01 -1.2388756871223450e-01</leafValues></_>
        <_>
          <internalNodes>
            0 -1 58 -2.4902084260247648e-04</internalNodes>
          <leafValues>
            3.2242015004158020e-01 -1.5993770956993103e-01</leafValues></_>
        <_>
          <internalNodes>
            0 -1 317 2.0658908761106431e-04</internalNodes>
          <leafValues>
            -2.4135792255401611e-01 2.1168994903564453e-01</leafValues></_>
        <_>
          <internalNodes>
            0 -1 433 -1.9289109332021326e-04</internalNodes>
          <leafValues>
            3.0375972390174866e-01 -1.6531622409820557e-01</leafValues></_></weakClassifiers></_>
    <!-- stage 12 -->
    <_>
      <maxWeakCount>31</maxWeakCount>
      <stageThreshold>-1.4774128198623657e+00</stageThreshold>
      <weakClassifiers>
        <_>
          <internalNodes>
            0 -1 66 -1.8284885212779045e-02</internalNodes>
          <leafValues>
            2.0556814968585968e-01 -4.1805166006088257e-01</leafValues></_>
        <_>
          <internalNodes>
            0 -1 105 1.1610450223088264e-02</internalNodes>
          <leafValues>
            -2.9455271363258362e-01 2.4970901012420654e-01</leafValues></_>
        <_>
          <internalNodes>
            0 -1 228 1.4645157381892204e-02</internalNodes>
          <leafValues>
            9.3174941837787628e-02 -6.3379782438278198e-01</leafValues></_>
        <_>
          <internalNodes>
            0 -1 480 -9.2873314861208200e-04</internalNodes>
          <leafValues>
            4.1021841764450073e-01 -1.3213045895099640e-01</leafValues></_>
        <_>
          <internalNodes>
            0 -1 480 8.0783688463270664e-04</internalNodes>
          <leafValues>
            -2.4772056937217712e-01 3.0145564675331116e-01</leafValues></_>
        <_>
          <internalNodes>
            0 -1 123 2.6598986005410552e-04</internalNodes>
          <leafValues>
            -1.3560689985752106e-01 3.4748542308807373e-01</leafValues></_>
        <_>
          <internalNodes>
            0 -1 240 -1.0963797103613615e-03</internalNodes>
          <leafValues>
            4.3789669871330261e-01 -1.2530215084552765e-01</leafValues></_>
        <_>
          <internalNodes>
            0 -1 247 -1.2694162251136731e-05</internalNodes>
          <leafValues>
            2.0464883744716644e-01 -2.8028431534767151e-01</leafValues></_>
        <_>
          <internalNodes>
            0 -1 377 -3.5415941965766251e-04</internalNodes>
          <leafValues>
            -6.1296296119689941e-01 7.9792663455009460e-02</leafValues></_>
        <_>
          <internalNodes>
            0 -1 207 -1.0430207476019859e-03</internalNodes>
          <leafValues>
            3.1683361530303955e-01 -1.8911348283290863e-01</leafValues></_>
        <_>
          <internalNodes>
            0 -1 244 4.2620120802894235e-04</internalNodes>
          <leafValues>
            -1.7972856760025024e-01 3.1360524892807007e-01</leafValues></_>
        <_>
          <internalNodes>
            0 -1 59 -4.2873993515968323e-02</internalNodes>
          <leafValues>
            -8.1236845254898071e-01 5.0976343452930450e-02</leafValues></_>
        <_>
          <internalNodes>
            0 -1 84 3.2477367669343948e-02</internalNodes>
          <leafValues>
            9.6387773752212524e-02 -5.1079356670379639e-01</leafValues></_>
        <_>
          <internalNodes>
            0 -1 202 4.6932997065596282e-04</internalNodes>
          <leafValues>
            -1.9226962327957153e-01 3.1930303573608398e-01</leafValues></_>
        <_>
          <internalNodes>
            0 -1 135 1.4293964341050014e-05</internalNodes>
          <leafValues>
            -1.9640845060348511e-01 2.8449663519859314e-01</leafValues></_>
        <_>
          <internalNodes>
            0 -1 248 -1.3175851563573815e-05</internalNodes>
          <leafValues>
            2.0974509418010712e-01 -2.5722038745880127e-01</leafValues></_>
        <_>
          <internalNodes>
            0 -1 362 -7.3538941796869040e-04</internalNodes>
          <leafValues>
            4.2287907004356384e-01 -1.1128310859203339e-01</leafValues></_>
        <_>
          <internalNodes>
            0 -1 362 6.0666096396744251e-04</internalNodes>
          <leafValues>
            -1.7160651087760925e-01 3.9345350861549377e-01</leafValues></_>
        <_>
          <internalNodes>
            0 -1 9 5.1302384235896170e-05</internalNodes>
          <leafValues>
            1.1378005146980286e-01 -5.0830453634262085e-01</leafValues></_>
        <_>
          <internalNodes>
            0 -1 274 3.7945801159366965e-04</internalNodes>
          <leafValues>
            -1.7956337332725525e-01 2.9460561275482178e-01</leafValues></_>
        <_>
          <internalNodes>
            0 -1 274 -3.8716144626960158e-04</internalNodes>
          <leafValues>
            3.4988150000572205e-01 -1.7416930198669434e-01</leafValues></_>
        <_>
          <internalNodes>
            0 -1 238 5.4824608378112316e-03</internalNodes>
          <leafValues>
            1.1465635150671005e-01 -5.7880365848541260e-01</leafValues></_>
        <_>
          <internalNodes>
            0 -1 293 6.4454355742782354e-04</internalNodes>
          <leafValues>
            5.1560211926698685e-02 -8.4218466281890869e-01</leafValues></_>
        <_>
          <internalNodes>
            0 -1 184 -7.8244909644126892e-02</internalNodes>
          <leafValues>
            -6.2258136272430420e-01 7.7296778559684753e-02</leafValues></_>
        <_>
          <internalNodes>
            0 -1 384 1.5836081729503348e-05</internalNodes>
          <leafValues>
            -1.8752011656761169e-01 2.8161361813545227e-01</leafValues></_>
        <_>
          <internalNodes>
            0 -1 249 -1.2969912495464087e-04</internalNodes>
          <leafValues>
            -6.1468058824539185e-01 9.8169058561325073e-02</leafValues></_>
        <_>
          <internalNodes>
            0 -1 115 1.8582044867798686e-04</internalNodes>
          <leafValues>
            -1.6743978857994080e-01 3.4814438223838806e-01</leafValues></_>
        <_>
          <internalNodes>
            0 -1 502 1.8121894448995590e-02</internalNodes>
          <leafValues>
            1.1600081622600555e-01 -4.2129299044609070e-01</leafValues></_>
        <_>
          <internalNodes>
            0 -1 431 -2.8190433979034424e-02</internalNodes>
          <leafValues>
            -7.8074836730957031e-01 5.0389464944601059e-02</leafValues></_>
        <_>
          <internalNodes>
            0 -1 106 8.4441024810075760e-03</internalNodes>
          <leafValues>
            -1.1002412438392639e-01 4.9406653642654419e-01</leafValues></_>
        <_>
          <internalNodes>
            0 -1 168 2.7779390802606940e-04</internalNodes>
          <leafValues>
            -1.4107456803321838e-01 3.1388041377067566e-01</leafValues></_></weakClassifiers></_>
    <!-- stage 13 -->
    <_>
      <maxWeakCount>38</maxWeakCount>
      <stageThreshold>-1.6743495464324951e+00</stageThreshold>
      <weakClassifiers>
        <_>
          <internalNodes>
            0 -1 35 1.2314777076244354e-01</internalNodes>
          <leafValues>
            -4.6365478634834290e-01 1.6943895816802979e-01</leafValues></_>
        <_>
          <internalNodes>
            0 -1 493 -1.1864991858601570e-02</internalNodes>
          <leafValues>
            5.7067835330963135e-01 -1.2307970225811005e-01</leafValues></_>
        <_>
          <internalNodes>
            0 -1 208 7.1059586480259895e-03</internalNodes>
          <leafValues>
            -1.5521365404129028e-01 5.1588660478591919e-01</leafValues></_>
        <_>
          <internalNodes>
            0 -1 458 -3.6109839566051960e-03</internalNodes>
          <leafValues>
            4.1129088401794434e-01 -1.0469996184110641e-01</leafValues></_>
        <_>
          <internalNodes>
            0 -1 439 7.2885846020653844e-04</internalNodes>
          <leafValues>
            -1.7725262045860291e-01 4.4721677899360657e-01</leafValues></_>
        <_>
          <internalNodes>
            0 -1 254 1.5356738003902137e-04</internalNodes>
          <leafValues>
            1.0621663928031921e-01 -8.4507894515991211e-01</leafValues></_>
        <_>
          <internalNodes>
            0 -1 211 3.2537188963033259e-04</internalNodes>
          <leafValues>
            -1.4290359616279602e-01 4.1197016835212708e-01</leafValues></_>
        <_>
          <internalNodes>
            0 -1 45 1.7657618224620819e-01</internalNodes>
          <leafValues>
            1.0964655876159668e-01 -5.3316676616668701e-01</leafValues></_>
        <_>
          <internalNodes>
            0 -1 399 3.5200739512220025e-04</internalNodes>
          <leafValues>
            -1.8549014627933502e-01 2.8803828358650208e-01</leafValues></_>
        <_>
          <internalNodes>
            0 -1 399 -2.8246868168935180e-04</internalNodes>
          <leafValues>
            4.0442952513694763e-01 -2.5196096301078796e-01</leafValues></_>
        <_>
          <internalNodes>
            0 -1 200 -1.3161730021238327e-02</internalNodes>
          <leafValues>
            -6.9564139842987061e-01 1.3536155223846436e-01</leafValues></_>
        <_>
          <internalNodes>
            0 -1 342 -1.3370115993893705e-05</internalNodes>
          <leafValues>
            1.4658890664577484e-01 -3.0493003129959106e-01</leafValues></_>
        <_>
          <internalNodes>
            0 -1 176 -2.7689218521118164e-02</internalNodes>
          <leafValues>
            -4.7140830755233765e-01 1.1107146739959717e-01</leafValues></_>
        <_>
          <internalNodes>
            0 -1 103 1.2408164911903441e-04</internalNodes>
          <leafValues>
            -2.2912757098674774e-01 2.3298315703868866e-01</leafValues></_>
        <_>
          <internalNodes>
            0 -1 97 1.7417449271306396e-05</internalNodes>
          <leafValues>
            -2.0403079688549042e-01 2.5009429454803467e-01</leafValues></_>
        <_>
          <internalNodes>
            0 -1 442 9.0637721586972475e-04</internalNodes>
          <leafValues>
            -1.4008182287216187e-01 3.5220980644226074e-01</leafValues></_>
        <_>
          <internalNodes>
            0 -1 379 -3.7870861706323922e-04</internalNodes>
          <leafValues>
            -8.3690738677978516e-01 7.1357592940330505e-02</leafValues></_>
        <_>
          <internalNodes>
            0 -1 369 2.2942642317502759e-05</internalNodes>
          <leafValues>
            -2.7674484252929688e-01 1.6772669553756714e-01</leafValues></_>
        <_>
          <internalNodes>
            0 -1 337 2.9562821146100760e-04</internalNodes>
          <leafValues>
            -1.6188308596611023e-01 3.2745808362960815e-01</leafValues></_>
        <_>
          <internalNodes>
            0 -1 277 1.4899313100613654e-04</internalNodes>
          <leafValues>
            -1.7310774326324463e-01 2.9887872934341431e-01</leafValues></_>
        <_>
          <internalNodes>
            0 -1 243 1.2882295413874090e-04</internalNodes>
          <leafValues>
            -2.0130285620689392e-01 2.8520819544792175e-01</leafValues></_>
        <_>
          <internalNodes>
            0 -1 182 1.9923239946365356e-02</internalNodes>
          <leafValues>
            7.2291843593120575e-02 -7.1114319562911987e-01</leafValues></_>
        <_>
          <internalNodes>
            0 -1 47 -2.4200774729251862e-02</internalNodes>
          <leafValues>
            -6.4723658561706543e-01 6.3891448080539703e-02</leafValues></_>
        <_>
          <internalNodes>
            0 -1 82 -4.9146213568747044e-03</internalNodes>
          <leafValues>
            4.2121756076812744e-01 -1.2350987643003464e-01</leafValues></_>
        <_>
          <internalNodes>
            0 -1 69 9.8921004682779312e-03</internalNodes>
          <leafValues>
            9.0881839394569397e-02 -5.5471575260162354e-01</leafValues></_>
        <_>
          <internalNodes>
            0 -1 119 -3.3546863123774529e-03</internalNodes>
          <leafValues>
            3.3080524206161499e-01 -1.6523058712482452e-01</leafValues></_>
        <_>
          <internalNodes>
            0 -1 483 -1.1213931720703840e-03</internalNodes>
          <leafValues>
            3.8995590806007385e-01 -1.1463648825883865e-01</leafValues></_>
        <_>
          <internalNodes>
            0 -1 503 -5.3316738922148943e-04</internalNodes>
          <leafValues>
            3.6601936817169189e-01 -1.1762685328722000e-01</leafValues></_>
        <_>
          <internalNodes>
            0 -1 269 -5.7601591106504202e-04</internalNodes>
          <leafValues>
            3.3866763114929199e-01 -1.3400107622146606e-01</leafValues></_>
        <_>
          <internalNodes>
            0 -1 269 4.3987020035274327e-04</internalNodes>
          <leafValues>
            -1.4903789758682251e-01 3.4033662080764771e-01</leafValues></_>
        <_>
          <internalNodes>
            0 -1 340 -5.7923444546759129e-04</internalNodes>
          <leafValues>
            -6.9988173246383667e-01 7.1784839034080505e-02</leafValues></_>
        <_>
          <internalNodes>
            0 -1 191 -3.1437664292752743e-03</internalNodes>
          <leafValues>
            -4.9401232600212097e-01 8.0776259303092957e-02</leafValues></_>
        <_>
          <internalNodes>
            0 -1 368 4.3791910866275430e-04</internalNodes>
          <leafValues>
            -1.4994630217552185e-01 2.9914221167564392e-01</leafValues></_>
        <_>
          <internalNodes>
            0 -1 488 2.8446380747482181e-04</internalNodes>
          <leafValues>
            1.2823835015296936e-01 -3.6323925852775574e-01</leafValues></_>
        <_>
          <internalNodes>
            0 -1 226 -2.9098752886056900e-02</internalNodes>
          <leafValues>
            -7.3579853773117065e-01 5.5105373263359070e-02</leafValues></_>
        <_>
          <internalNodes>
            0 -1 297 1.1974982771789655e-04</internalNodes>
          <leafValues>
            -2.5572329759597778e-01 1.6610221564769745e-01</leafValues></_>
        <_>
          <internalNodes>
            0 -1 81 2.8520550578832626e-02</internalNodes>
          <leafValues>
            2.7849528193473816e-01 -1.7365856468677521e-01</leafValues></_>
        <_>
          <internalNodes>
            0 -1 400 2.0292890258133411e-04</internalNodes>
          <leafValues>
            -1.7649875581264496e-01 2.5570166110992432e-01</leafValues></_></weakClassifiers></_>
    <!-- stage 14 -->
    <_>
      <maxWeakCount>44</maxWeakCount>
      <stageThreshold>-1.7142091989517212e+00</stageThreshold>
      <weakClassifiers>
        <_>
          <internalNodes>
            0 -1 172 3.2222077250480652e-02</internalNodes>
          <leafValues>
            -5.1878750324249268e-01 1.6775371134281158e-01</leafValues></_>
        <_>
          <internalNodes>
            0 -1 447 1.2683035805821419e-02</internalNodes>
          <leafValues>
            -9.6982486546039581e-02 7.4278318881988525e-01</leafValues></_>
        <_>
          <internalNodes>
            0 -1 89 -3.2366011873818934e-04</internalNodes>
          <leafValues>
            3.6849287152290344e-01 -1.7732273042201996e-01</leafValues></_>
        <_>
          <internalNodes>
            0 -1 341 -1.3022445273236372e-05</internalNodes>
          <leafValues>
            2.1084238588809967e-01 -3.0279722809791565e-01</leafValues></_>
        <_>
          <internalNodes>
            0 -1 83 1.5453373081982136e-02</internalNodes>
          <leafValues>
            -3.4102108329534531e-02 7.0018362998962402e-01</leafValues></_>
        <_>
          <internalNodes>
            0 -1 474 -5.5153053253889084e-03</internalNodes>
          <leafValues>
            3.3452352881431580e-01 -1.7727930843830109e-01</leafValues></_>
        <_>
          <internalNodes>
            0 -1 445 -1.2658037012442946e-03</internalNodes>
          <leafValues>
            3.4526133537292480e-01 -1.4238844811916351e-01</leafValues></_>
        <_>
          <internalNodes>
            0 -1 174 1.3205028371885419e-03</internalNodes>
          <leafValues>
            -1.4780645072460175e-01 3.5927611589431763e-01</leafValues></_>
        <_>
          <internalNodes>
            0 -1 36 3.9416946470737457e-02</internalNodes>
          <leafValues>
            8.8641837239265442e-02 -5.3185665607452393e-01</leafValues></_>
        <_>
          <internalNodes>
            0 -1 296 4.4486270780907944e-05</internalNodes>
          <leafValues>
            -2.9045295715332031e-01 1.6081295907497406e-01</leafValues></_>
        <_>
          <internalNodes>
            0 -1 303 2.6542595587670803e-03</internalNodes>
          <leafValues>
            9.5768623054027557e-02 -5.6257539987564087e-01</leafValues></_>
        <_>
          <internalNodes>
            0 -1 154 -5.2330561447888613e-04</internalNodes>
          <leafValues>
            2.4908554553985596e-01 -1.8018804490566254e-01</leafValues></_>
        <_>
          <internalNodes>
            0 -1 28 6.5878293753485195e-06</internalNodes>
          <leafValues>
            1.3794539868831635e-01 -3.5958877205848694e-01</leafValues></_>
        <_>
          <internalNodes>
            0 -1 465 -6.2721048016101122e-04</internalNodes>
          <leafValues>
            2.7714008092880249e-01 -1.7632561922073364e-01</leafValues></_>
        <_>
          <internalNodes>
            0 -1 465 4.8641738248988986e-04</internalNodes>
          <leafValues>
            -1.6469569504261017e-01 3.1992834806442261e-01</leafValues></_>
        <_>
          <internalNodes>
            0 -1 192 -5.9644069522619247e-02</internalNodes>
          <leafValues>
            -6.3688546419143677e-01 7.6310835778713226e-02</leafValues></_>
        <_>
          <internalNodes>
            0 -1 355 -3.2771803671494126e-04</internalNodes>
          <leafValues>
            -8.2707548141479492e-01 4.7354545444250107e-02</leafValues></_>
        <_>
          <internalNodes>
            0 -1 335 2.6262074243277311e-04</internalNodes>
          <leafValues>
            -1.9284290075302124e-01 2.3300777375698090e-01</leafValues></_>
        <_>
          <internalNodes>
            0 -1 335 -1.1301522317808121e-04</internalNodes>
          <leafValues>
            3.1680464744567871e-01 -1.7489224672317505e-01</leafValues></_>
        <_>
          <internalNodes>
            0 -1 111 -3.7378236651420593e-02</internalNodes>
          <leafValues>
            -7.7956634759902954e-01 5.8592483401298523e-02</leafValues></_>
        <_>
          <internalNodes>
            0 -1 432 -4.6984342043288052e-04</internalNodes>
          <leafValues>
            2.5294756889343262e-01 -1.8699851632118225e-01</leafValues></_>
        <_>
          <internalNodes>
            0 -1 395 -2.7781454264186323e-04</internalNodes>
          <leafValues>
            3.0453228950500488e-01 -1.6016095876693726e-01</leafValues></_>
        <_>
          <internalNodes>
            0 -1 342 -1.6820106247905642e-04</internalNodes>
          <leafValues>
            -7.5012761354446411e-01 5.8487199246883392e-02</leafValues></_>
        <_>
          <internalNodes>
            0 -1 365 -7.1108189877122641e-04</internalNodes>
          <leafValues>
            3.3504897356033325e-01 -1.3590565323829651e-01</leafValues></_>
        <_>
          <internalNodes>
            0 -1 409 1.4567704056389630e-05</internalNodes>
          <leafValues>
            -1.3832600414752960e-01 3.0162516236305237e-01</leafValues></_>
        <_>
          <internalNodes>
            0 -1 345 -1.4959977124817669e-04</internalNodes>
          <leafValues>
            -6.5836864709854126e-01 7.6529480516910553e-02</leafValues></_>
        <_>
          <internalNodes>
            0 -1 309 -2.2901096963323653e-04</internalNodes>
          <leafValues>
            3.4802320599555969e-01 -1.8588733673095703e-01</leafValues></_>
        <_>
          <internalNodes>
            0 -1 305 -5.1489262841641903e-04</internalNodes>
          <leafValues>
            3.4336054325103760e-01 -1.3664731383323669e-01</leafValues></_>
        <_>
          <internalNodes>
            0 -1 183 1.6073938459157944e-02</internalNodes>
          <leafValues>
            8.6294248700141907e-02 -5.2781504392623901e-01</leafValues></_>
        <_>
          <internalNodes>
            0 -1 33 -2.7209285646677017e-02</internalNodes>
          <leafValues>
            2.8899803757667542e-01 -1.5501488745212555e-01</leafValues></_>
        <_>
          <internalNodes>
            0 -1 372 -1.2530519597930834e-05</internalNodes>
          <leafValues>
            1.6536282002925873e-01 -2.7391800284385681e-01</leafValues></_>
        <_>
          <internalNodes>
            0 -1 261 1.3619338460557628e-05</internalNodes>
          <leafValues>
            -1.2287122011184692e-01 3.6945515871047974e-01</leafValues></_>
        <_>
          <internalNodes>
            0 -1 231 -1.1907834559679031e-02</internalNodes>
          <leafValues>
            -6.5485119819641113e-01 7.4379801750183105e-02</leafValues></_>
        <_>
          <internalNodes>
            0 -1 98 -2.8406479395925999e-04</internalNodes>
          <leafValues>
            3.7348175048828125e-01 -1.2000726163387299e-01</leafValues></_>
        <_>
          <internalNodes>
            0 -1 348 -1.7987043247558177e-04</internalNodes>
          <leafValues>
            -8.2400244474411011e-01 5.5663648992776871e-02</leafValues></_>
        <_>
          <internalNodes>
            0 -1 419 -1.0841186303878203e-04</internalNodes>
          <leafValues>
            2.7098858356475830e-01 -1.5707042813301086e-01</leafValues></_>
        <_>
          <internalNodes>
            0 -1 364 4.5964885503053665e-03</internalNodes>
          <leafValues>
            1.1746139824390411e-01 -3.8535746932029724e-01</leafValues></_>
        <_>
          <internalNodes>
            0 -1 127 -3.5912965540774167e-04</internalNodes>
          <leafValues>
            2.7154585719108582e-01 -1.6596035659313202e-01</leafValues></_>
        <_>
          <internalNodes>
            0 -1 476 1.0685516521334648e-02</internalNodes>
          <leafValues>
            9.6046537160873413e-02 -4.3499073386192322e-01</leafValues></_>
        <_>
          <internalNodes>
            0 -1 87 -2.1272741723805666e-03</internalNodes>
          <leafValues>
            3.0554974079132080e-01 -1.5240274369716644e-01</leafValues></_>
        <_>
          <internalNodes>
            0 -1 455 -3.4416317939758301e-02</internalNodes>
          <leafValues>
            2.2392535209655762e-01 -1.9605195522308350e-01</leafValues></_>
        <_>
          <internalNodes>
            0 -1 426 1.1246246867813170e-04</internalNodes>
          <leafValues>
            -1.3898290693759918e-01 3.1294664740562439e-01</leafValues></_>
        <_>
          <internalNodes>
            0 -1 73 -5.1780114881694317e-04</internalNodes>
          <leafValues>
            2.9396295547485352e-01 -1.2965793907642365e-01</leafValues></_>
        <_>
          <internalNodes>
            0 -1 315 -2.8869751258753240e-04</internalNodes>
          <leafValues>
            -6.1474370956420898e-01 6.7331641912460327e-02</leafValues></_></weakClassifiers></_>
    <!-- stage 15 -->
    <_>
      <maxWeakCount>49</maxWeakCount>
      <stageThreshold>-1.7087286710739136e+00</stageThreshold>
      <weakClassifiers>
        <_>
          <internalNodes>
            0 -1 10 2.5575965642929077e-01</internalNodes>
          <leafValues>
            -3.2245719432830811e-01 2.9533168673515320e-01</leafValues></_>
        <_>
          <internalNodes>
            0 -1 366 2.2462771739810705e-03</internalNodes>
          <leafValues>
            -1.8340280652046204e-01 4.2139542102813721e-01</leafValues></_>
        <_>
          <internalNodes>
            0 -1 323 -5.8293784968554974e-03</internalNodes>
          <leafValues>
            5.5267643928527832e-01 -1.7996016144752502e-01</leafValues></_>
        <_>
          <internalNodes>
            0 -1 137 1.5153654385358095e-04</internalNodes>
          <leafValues>
            -2.4056901037693024e-01 2.3404073715209961e-01</leafValues></_>
        <_>
          <internalNodes>
            0 -1 310 2.2268216707743704e-04</internalNodes>
          <leafValues>
            -2.4693506956100464e-01 2.1849177777767181e-01</leafValues></_>
        <_>
          <internalNodes>
            0 -1 470 -1.9084189552813768e-03</internalNodes>
          <leafValues>
            4.8391649127006531e-01 -1.2584973871707916e-01</leafValues></_>
        <_>
          <internalNodes>
            0 -1 76 2.8889738023281097e-02</internalNodes>
          <leafValues>
            5.9426713734865189e-02 -5.6367182731628418e-01</leafValues></_>
        <_>
          <internalNodes>
            0 -1 215 -1.4018381989444606e-05</internalNodes>
          <leafValues>
            2.2965638339519501e-01 -1.9364020228385925e-01</leafValues></_>
        <_>
          <internalNodes>
            0 -1 466 -7.3669961420819163e-04</internalNodes>
          <leafValues>
            3.1103137135505676e-01 -1.5223366022109985e-01</leafValues></_>
        <_>
          <internalNodes>
            0 -1 79 1.6448788344860077e-02</internalNodes>
          <leafValues>
            -4.1834093630313873e-02 6.5808409452438354e-01</leafValues></_>
        <_>
          <internalNodes>
            0 -1 237 6.7597441375255585e-03</internalNodes>
          <leafValues>
            -9.5401905477046967e-02 4.7181764245033264e-01</leafValues></_>
        <_>
          <internalNodes>
            0 -1 245 3.9580434560775757e-02</internalNodes>
          <leafValues>
            7.9909130930900574e-02 -5.6184136867523193e-01</leafValues></_>
        <_>
          <internalNodes>
            0 -1 206 1.1591906659305096e-03</internalNodes>
          <leafValues>
            -1.4936687052249908e-01 3.0341306328773499e-01</leafValues></_>
        <_>
          <internalNodes>
            0 -1 410 1.4088773241383024e-05</internalNodes>
          <leafValues>
            -1.6281552612781525e-01 2.8221943974494934e-01</leafValues></_>
        <_>
          <internalNodes>
            0 -1 394 -9.1857928782701492e-03</internalNodes>
          <leafValues>
            -5.9432256221771240e-01 9.0288855135440826e-02</leafValues></_>
        <_>
          <internalNodes>
            0 -1 144 1.4752249233424664e-02</internalNodes>
          <leafValues>
            -7.7195070683956146e-02 6.6752570867538452e-01</leafValues></_>
        <_>
          <internalNodes>
            0 -1 263 -8.3836764097213745e-03</internalNodes>
          <leafValues>
            -4.8322173953056335e-01 9.8208077251911163e-02</leafValues></_>
        <_>
          <internalNodes>
            0 -1 298 2.3414110764861107e-03</internalNodes>
          <leafValues>
            4.4072788208723068e-02 -7.2680091857910156e-01</leafValues></_>
        <_>
          <internalNodes>
            0 -1 376 -1.4101608030614443e-05</internalNodes>
          <leafValues>
            1.6119195520877838e-01 -2.5186479091644287e-01</leafValues></_>
        <_>
          <internalNodes>
            0 -1 281 6.6353495640214533e-05</internalNodes>
          <leafValues>
            -1.9967080652713776e-01 1.9931958615779877e-01</leafValues></_>
        <_>
          <internalNodes>
            0 -1 273 -4.1301210876554251e-04</internalNodes>
          <leafValues>
            2.7840945124626160e-01 -1.4314909279346466e-01</leafValues></_>
        <_>
          <internalNodes>
            0 -1 273 1.9869742391165346e-04</internalNodes>
          <leafValues>
            -1.7686128616333008e-01 2.8313821554183960e-01</leafValues></_>
        <_>
          <internalNodes>
            0 -1 151 4.0819854475557804e-03</internalNodes>
          <leafValues>
            9.1627970337867737e-02 -4.5525646209716797e-01</leafValues></_>
        <_>
          <internalNodes>
            0 -1 177 -7.9358499497175217e-03</internalNodes>
          <leafValues>
            -3.2727897167205811e-01 1.2728486955165863e-01</leafValues></_>
        <_>
          <internalNodes>
            0 -1 457 1.1588847264647484e-02</internalNodes>
          <leafValues>
            -7.1594431996345520e-02 5.9207016229629517e-01</leafValues></_>
        <_>
          <internalNodes>
            0 -1 438 -5.3017144091427326e-04</internalNodes>
          <leafValues>
            3.1005993485450745e-01 -1.3547183573246002e-01</leafValues></_>
        <_>
          <internalNodes>
            0 -1 72 1.7099233809858561e-04</internalNodes>
          <leafValues>
            -1.9623900949954987e-01 1.9259904325008392e-01</leafValues></_>
        <_>
          <internalNodes>
            0 -1 302 -1.9918634279747494e-05</internalNodes>
          <leafValues>
            2.3336084187030792e-01 -1.8898658454418182e-01</leafValues></_>
        <_>
          <internalNodes>
            0 -1 290 -2.8041675250278786e-05</internalNodes>
          <leafValues>
            2.4667808413505554e-01 -1.7683988809585571e-01</leafValues></_>
        <_>
          <internalNodes>
            0 -1 218 4.2810346349142492e-04</internalNodes>
          <leafValues>
            1.0954431444406509e-01 -3.8459274172782898e-01</leafValues></_>
        <_>
          <internalNodes>
            0 -1 308 1.4524195648846216e-05</internalNodes>
          <leafValues>
            -2.5701993703842163e-01 1.6884109377861023e-01</leafValues></_>
        <_>
          <internalNodes>
            0 -1 371 -5.8877635747194290e-03</internalNodes>
          <leafValues>
            3.7782278656959534e-01 -1.0564179718494415e-01</leafValues></_>
        <_>
          <internalNodes>
            0 -1 101 -1.8160298932343721e-03</internalNodes>
          <leafValues>
            2.5004220008850098e-01 -1.5438242256641388e-01</leafValues></_>
        <_>
          <internalNodes>
            0 -1 389 -1.8154648132622242e-03</internalNodes>
          <leafValues>
            2.7317106723785400e-01 -1.4362312853336334e-01</leafValues></_>
        <_>
          <internalNodes>
            0 -1 5 -2.5247974554076791e-04</internalNodes>
          <leafValues>
            -3.3169418573379517e-01 1.0952856391668320e-01</leafValues></_>
        <_>
          <internalNodes>
            0 -1 44 -3.9746426045894623e-02</internalNodes>
          <leafValues>
            -4.9696704745292664e-01 6.8304166197776794e-02</leafValues></_>
        <_>
          <internalNodes>
            0 -1 149 -1.6854256391525269e-02</internalNodes>
          <leafValues>
            -6.4338910579681396e-01 5.0866816192865372e-02</leafValues></_>
        <_>
          <internalNodes>
            0 -1 117 -2.4729449069127440e-04</internalNodes>
          <leafValues>
            2.4880278110504150e-01 -1.6718333959579468e-01</leafValues></_>
        <_>
          <internalNodes>
            0 -1 121 1.0233968350803480e-04</internalNodes>
          <leafValues>
            -1.3428848981857300e-01 2.9327762126922607e-01</leafValues></_>
        <_>
          <internalNodes>
            0 -1 391 -7.3646509554237127e-04</internalNodes>
          <leafValues>
            2.6952248811721802e-01 -1.2477733194828033e-01</leafValues></_>
        <_>
          <internalNodes>
            0 -1 308 3.2454688334837556e-04</internalNodes>
          <leafValues>
            1.0789147764444351e-01 -3.3231681585311890e-01</leafValues></_>
        <_>
          <internalNodes>
            0 -1 411 6.7126529756933451e-05</internalNodes>
          <leafValues>
            -2.0564591884613037e-01 2.1297655999660492e-01</leafValues></_>
        <_>
          <internalNodes>
            0 -1 143 2.8897100128233433e-04</internalNodes>
          <leafValues>
            -1.2460418790578842e-01 3.0208939313888550e-01</leafValues></_>
        <_>
          <internalNodes>
            0 -1 175 9.8689198493957520e-03</internalNodes>
          <leafValues>
            -6.3002914190292358e-02 6.0329616069793701e-01</leafValues></_>
        <_>
          <internalNodes>
            0 -1 354 8.6961127817630768e-04</internalNodes>
          <leafValues>
            8.0341361463069916e-02 -4.9397081136703491e-01</leafValues></_>
        <_>
          <internalNodes>
            0 -1 8 1.0715030657593161e-04</internalNodes>
          <leafValues>
            8.6732953786849976e-02 -3.7304234504699707e-01</leafValues></_>
        <_>
          <internalNodes>
            0 -1 12 6.8203985691070557e-02</internalNodes>
          <leafValues>
            1.1853089183568954e-01 -3.1219434738159180e-01</leafValues></_>
        <_>
          <internalNodes>
            0 -1 352 1.2677395716309547e-02</internalNodes>
          <leafValues>
            5.7949576526880264e-02 -6.2412244081497192e-01</leafValues></_>
        <_>
          <internalNodes>
            0 -1 414 1.2162888050079346e-01</internalNodes>
          <leafValues>
            8.4629461169242859e-02 -4.5557364821434021e-01</leafValues></_></weakClassifiers></_>
    <!-- stage 16 -->
    <_>
      <maxWeakCount>55</maxWeakCount>
      <stageThreshold>-1.7974562644958496e+00</stageThreshold>
      <weakClassifiers>
        <_>
          <internalNodes>
            0 -1 43 4.3426427990198135e-02</internalNodes>
          <leafValues>
            -5.0127410888671875e-01 8.8643312454223633e-02</leafValues></_>
        <_>
          <internalNodes>
            0 -1 481 -9.0461764484643936e-03</internalNodes>
          <leafValues>
            5.1885008811950684e-01 -1.2854698300361633e-01</leafValues></_>
        <_>
          <internalNodes>
            0 -1 475 -9.5819644629955292e-03</internalNodes>
          <leafValues>
            5.0261443853378296e-01 -1.0347063839435577e-01</leafValues></_>
        <_>
          <internalNodes>
            0 -1 173 1.7274722456932068e-02</internalNodes>
          <leafValues>
            1.1309759318828583e-01 -4.6303647756576538e-01</leafValues></_>
        <_>
          <internalNodes>
            0 -1 104 -4.4213598594069481e-03</internalNodes>
          <leafValues>
            3.9603179693222046e-01 -1.3656640052795410e-01</leafValues></_>
        <_>
          <internalNodes>
            0 -1 153 4.1778979357331991e-04</internalNodes>
          <leafValues>
            -1.9699792563915253e-01 2.7729335427284241e-01</leafValues></_>
        <_>
          <internalNodes>
            0 -1 153 -5.2010273793712258e-04</internalNodes>
          <leafValues>
            3.8634237647056580e-01 -1.4517334103584290e-01</leafValues></_>
        <_>
          <internalNodes>
            0 -1 435 -2.8639079537242651e-03</internalNodes>
          <leafValues>
            3.3190071582794189e-01 -1.3881705701351166e-01</leafValues></_>
        <_>
          <internalNodes>
            0 -1 420 -1.5411940694320947e-05</internalNodes>
          <leafValues>
            3.0887407064437866e-01 -1.4609915018081665e-01</leafValues></_>
        <_>
          <internalNodes>
            0 -1 283 -2.0901909010717645e-05</internalNodes>
          <leafValues>
            1.4685478806495667e-01 -3.0074134469032288e-01</leafValues></_>
        <_>
          <internalNodes>
            0 -1 259 2.6264728512614965e-04</internalNodes>
          <leafValues>
            -2.2304044663906097e-01 2.0801897346973419e-01</leafValues></_>
        <_>
          <internalNodes>
            0 -1 507 -2.7605464681982994e-02</internalNodes>
          <leafValues>
            -4.5682820677757263e-01 8.1311419606208801e-02</leafValues></_>
        <_>
          <internalNodes>
            0 -1 138 1.6322912415489554e-04</internalNodes>
          <leafValues>
            -2.4972984194755554e-01 1.9135858118534088e-01</leafValues></_>
        <_>
          <internalNodes>
            0 -1 125 -1.8495402764528990e-04</internalNodes>
          <leafValues>
            2.7672517299652100e-01 -1.6005499660968781e-01</leafValues></_>
        <_>
          <internalNodes>
            0 -1 187 1.2354323640465736e-02</internalNodes>
          <leafValues>
            8.4725707769393921e-02 -6.4488583803176880e-01</leafValues></_>
        <_>
          <internalNodes>
            0 -1 236 -9.6153502818197012e-04</internalNodes>
          <leafValues>
            2.4083724617958069e-01 -1.8715263903141022e-01</leafValues></_>
        <_>
          <internalNodes>
            0 -1 265 -2.4647835642099380e-02</internalNodes>
          <leafValues>
            -6.1450797319412231e-01 7.2093278169631958e-02</leafValues></_>
        <_>
          <internalNodes>
            0 -1 95 -7.6129985973238945e-03</internalNodes>
          <leafValues>
            5.0891858339309692e-01 -9.2231377959251404e-02</leafValues></_>
        <_>
          <internalNodes>
            0 -1 328 -3.3225829247385263e-04</internalNodes>
          <leafValues>
            3.0669891834259033e-01 -1.3258352875709534e-01</leafValues></_>
        <_>
          <internalNodes>
            0 -1 349 3.0994601547718048e-04</internalNodes>
          <leafValues>
            6.8690739572048187e-02 -6.9482147693634033e-01</leafValues></_>
        <_>
          <internalNodes>
            0 -1 328 1.7504426068626344e-04</internalNodes>
          <leafValues>
            -1.8575024604797363e-01 2.2317533195018768e-01</leafValues></_>
        <_>
          <internalNodes>
            0 -1 423 1.4650941011495888e-05</internalNodes>
          <leafValues>
            -1.6138046979904175e-01 2.5109228491783142e-01</leafValues></_>
        <_>
          <internalNodes>
            0 -1 370 1.8455930330674164e-05</internalNodes>
          <leafValues>
            -2.4805438518524170e-01 1.9004985690116882e-01</leafValues></_>
        <_>
          <internalNodes>
            0 -1 510 1.5103403711691499e-04</internalNodes>
          <leafValues>
            1.0291170328855515e-01 -3.7562751770019531e-01</leafValues></_>
        <_>
          <internalNodes>
            0 -1 418 3.3020687988027930e-04</internalNodes>
          <leafValues>
            -1.4405351877212524e-01 2.6536515355110168e-01</leafValues></_>
        <_>
          <internalNodes>
            0 -1 418 -3.2384955557063222e-04</internalNodes>
          <leafValues>
            2.8815495967864990e-01 -1.7448671162128448e-01</leafValues></_>
        <_>
          <internalNodes>
            0 -1 15 -2.8989145066589117e-03</internalNodes>
          <leafValues>
            2.2602075338363647e-01 -1.7675031721591949e-01</leafValues></_>
        <_>
          <internalNodes>
            0 -1 120 2.4656450841575861e-04</internalNodes>
          <leafValues>
            -1.6603766381740570e-01 2.2920460999011993e-01</leafValues></_>
        <_>
          <internalNodes>
            0 -1 406 4.3909129453822970e-04</internalNodes>
          <leafValues>
            5.9344895184040070e-02 -6.8246108293533325e-01</leafValues></_>
        <_>
          <internalNodes>
            0 -1 38 -5.7963666040450335e-04</internalNodes>
          <leafValues>
            3.9009299874305725e-01 -1.0310633480548859e-01</leafValues></_>
        <_>
          <internalNodes>
            0 -1 120 -4.8643455374985933e-04</internalNodes>
          <leafValues>
            3.2279497385025024e-01 -1.1629200726747513e-01</leafValues></_>
        <_>
          <internalNodes>
            0 -1 19 1.6195066564250737e-05</internalNodes>
          <leafValues>
            1.0383594781160355e-01 -3.8405454158782959e-01</leafValues></_>
        <_>
          <internalNodes>
            0 -1 77 7.7900931239128113e-02</internalNodes>
          <leafValues>
            5.0983622670173645e-02 -6.8063634634017944e-01</leafValues></_>
        <_>
          <internalNodes>
            0 -1 188 -3.0686655081808567e-03</internalNodes>
          <leafValues>
            -3.0593430995941162e-01 1.2094463407993317e-01</leafValues></_>
        <_>
          <internalNodes>
            0 -1 237 9.0936552733182907e-03</internalNodes>
          <leafValues>
            -7.1141272783279419e-02 5.3078520298004150e-01</leafValues></_>
        <_>
          <internalNodes>
            0 -1 494 -3.3636023290455341e-03</internalNodes>
          <leafValues>
            3.5630556941032410e-01 -9.2834234237670898e-02</leafValues></_>
        <_>
          <internalNodes>
            0 -1 467 -3.9360986556857824e-04</internalNodes>
          <leafValues>
            2.8663969039916992e-01 -1.3488303124904633e-01</leafValues></_>
        <_>
          <internalNodes>
            0 -1 373 -2.1361152903409675e-05</internalNodes>
          <leafValues>
            1.8438795208930969e-01 -2.0812517404556274e-01</leafValues></_>
        <_>
          <internalNodes>
            0 -1 286 2.0671388483606279e-05</internalNodes>
          <leafValues>
            -1.7575813829898834e-01 2.3960557579994202e-01</leafValues></_>
        <_>
          <internalNodes>
            0 -1 353 1.3778504217043519e-04</internalNodes>
          <leafValues>
            4.0224846452474594e-02 -9.0195280313491821e-01</leafValues></_>
        <_>
          <internalNodes>
            0 -1 239 3.4171488368883729e-04</internalNodes>
          <leafValues>
            -1.5013547241687775e-01 2.2734142839908600e-01</leafValues></_>
        <_>
          <internalNodes>
            0 -1 363 -1.4490645844489336e-03</internalNodes>
          <leafValues>
            3.0396673083305359e-01 -1.4277309179306030e-01</leafValues></_>
        <_>
          <internalNodes>
            0 -1 326 -4.1424189694225788e-03</internalNodes>
          <leafValues>
            -5.6288719177246094e-01 6.6725142300128937e-02</leafValues></_>
        <_>
          <internalNodes>
            0 -1 412 1.4903779629094061e-05</internalNodes>
          <leafValues>
            -1.2388128787279129e-01 3.1230649352073669e-01</leafValues></_>
        <_>
          <internalNodes>
            0 -1 78 -3.3017411828041077e-02</internalNodes>
          <leafValues>
            -6.5084040164947510e-01 5.6874614208936691e-02</leafValues></_>
        <_>
          <internalNodes>
            0 -1 91 -2.2439072199631482e-04</internalNodes>
          <leafValues>
            2.9358950257301331e-01 -1.1817565560340881e-01</leafValues></_>
        <_>
          <internalNodes>
            0 -1 91 1.7280341126024723e-04</internalNodes>
          <leafValues>
            -1.2053772807121277e-01 3.1362935900688171e-01</leafValues></_>
        <_>
          <internalNodes>
            0 -1 46 -2.5408135727047920e-02</internalNodes>
          <leafValues>
            -4.8068875074386597e-01 8.2347258925437927e-02</leafValues></_>
        <_>
          <internalNodes>
            0 -1 21 2.3830015561543405e-04</internalNodes>
          <leafValues>
            8.9890770614147186e-02 -3.6762347817420959e-01</leafValues></_>
        <_>
          <internalNodes>
            0 -1 398 -5.9646852314472198e-03</internalNodes>
          <leafValues>
            -3.6802440881729126e-01 8.3546705543994904e-02</leafValues></_>
        <_>
          <internalNodes>
            0 -1 321 4.5528784394264221e-03</internalNodes>
          <leafValues>
            1.3154518604278564e-01 -2.8830143809318542e-01</leafValues></_>
        <_>
          <internalNodes>
            0 -1 469 5.6848279200494289e-05</internalNodes>
          <leafValues>
            -1.1734563112258911e-01 2.7255269885063171e-01</leafValues></_>
        <_>
          <internalNodes>
            0 -1 347 -1.3753320672549307e-04</internalNodes>
          <leafValues>
            -7.7807563543319702e-01 4.3042324483394623e-02</leafValues></_>
        <_>
          <internalNodes>
            0 -1 399 6.3467060681432486e-04</internalNodes>
          <leafValues>
            -1.3582198321819305e-01 2.4739150702953339e-01</leafValues></_>
        <_>
          <internalNodes>
            0 -1 416 -7.5551442569121718e-04</internalNodes>
          <leafValues>
            3.0605286359786987e-01 -1.5207917988300323e-01</leafValues></_></weakClassifiers></_>
    <!-- stage 17 -->
    <_>
      <maxWeakCount>61</maxWeakCount>
      <stageThreshold>-1.7019263505935669e+00</stageThreshold>
      <weakClassifiers>
        <_>
          <internalNodes>
            0 -1 490 -6.7367509007453918e-02</internalNodes>
          <leafValues>
            1.4165967702865601e-01 -4.4051447510719299e-01</leafValues></_>
        <_>
          <internalNodes>
            0 -1 14 7.0279479587043170e-06</internalNodes>
          <leafValues>
            1.3263395428657532e-01 -3.3338943123817444e-01</leafValues></_>
        <_>
          <internalNodes>
            0 -1 161 -2.2290850756689906e-04</internalNodes>
          <leafValues>
            2.8059837222099304e-01 -1.6085639595985413e-01</leafValues></_>
        <_>
          <internalNodes>
            0 -1 491 -1.3157017529010773e-02</internalNodes>
          <leafValues>
            5.5302339792251587e-01 -4.3698079884052277e-02</leafValues></_>
        <_>
          <internalNodes>
            0 -1 233 -8.0155599862337112e-03</internalNodes>
          <leafValues>
            3.8800150156021118e-01 -1.4890722930431366e-01</leafValues></_>
        <_>
          <internalNodes>
            0 -1 333 -2.4238387122750282e-03</internalNodes>
          <leafValues>
            3.9500156044960022e-01 -7.8210622072219849e-02</leafValues></_>
        <_>
          <internalNodes>
            0 -1 325 -7.0518404245376587e-03</internalNodes>
          <leafValues>
            -5.2545630931854248e-01 6.0074396431446075e-02</leafValues></_>
        <_>
          <internalNodes>
            0 -1 42 2.1673791110515594e-02</internalNodes>
          <leafValues>
            -8.3313576877117157e-02 3.9487329125404358e-01</leafValues></_>
        <_>
          <internalNodes>
            0 -1 339 4.1322731703985482e-05</internalNodes>
          <leafValues>
            -2.6587292551994324e-01 1.4419722557067871e-01</leafValues></_>
        <_>
          <internalNodes>
            0 -1 440 9.8824547603726387e-04</internalNodes>
          <leafValues>
            -1.2940506637096405e-01 2.9415997862815857e-01</leafValues></_>
        <_>
          <internalNodes>
            0 -1 289 -2.6718917069956660e-04</internalNodes>
          <leafValues>
            2.3428905010223389e-01 -1.5880845487117767e-01</leafValues></_>
        <_>
          <internalNodes>
            0 -1 246 1.3927534222602844e-02</internalNodes>
          <leafValues>
            8.3759211003780365e-02 -5.7866597175598145e-01</leafValues></_>
        <_>
          <internalNodes>
            0 -1 128 -7.5645046308636665e-04</internalNodes>
          <leafValues>
            3.3072957396507263e-01 -1.1465840786695480e-01</leafValues></_>
        <_>
          <internalNodes>
            0 -1 129 -2.2067857207730412e-04</internalNodes>
          <leafValues>
            2.6271471381187439e-01 -1.6763338446617126e-01</leafValues></_>
        <_>
          <internalNodes>
            0 -1 358 1.7290105461142957e-05</internalNodes>
          <leafValues>
            -1.5218856930732727e-01 2.4763622879981995e-01</leafValues></_>
        <_>
          <internalNodes>
            0 -1 358 -3.7123434594832361e-05</internalNodes>
          <leafValues>
