<?xml version="1.0"?>
<opencv_storage>
<stage9>
  <maxWeakCount>27</maxWeakCount>
  <stageThreshold>-1.7367839813232422e+00</stageThreshold>
  <weakClassifiers>
    <_>
      <internalNodes>
        0 -1 162299 5.2819263935089111e-01</internalNodes>
      <leafValues>
        -3.1892889738082886e-01 4.5867508649826050e-01</leafValues></_>
    <_>
      <internalNodes>
        0 -1 332991 -9.3113532057031989e-04</internalNodes>
      <leafValues>
        5.5212581157684326e-01 -1.8006660044193268e-01</leafValues></_>
    <_>
      <internalNodes>
        0 -1 332991 4.4183735735714436e-04</internalNodes>
      <leafValues>
        -3.0828386545181274e-01 4.9081352353096008e-01</leafValues></_>
    <_>
      <internalNodes>
        0 -1 337014 5.2725651767104864e-04</internalNodes>
      <leafValues>
        1.4223420619964600e-01 -8.0046904087066650e-01</leafValues></_>
    <_>
      <internalNodes>
        0 -1 266093 -4.6216696500778198e-04</internalNodes>
      <leafValues>
        4.3166187405586243e-01 -2.2075003385543823e-01</leafValues></_>
    <_>
      <internalNodes>
        0 -1 218916 -1.5930011868476868e-03</internalNodes>
      <leafValues>
        4.6895426511764526e-01 -1.3633981347084045e-01</leafValues></_>
    <_>
      <internalNodes>
        0 -1 307199 2.9995752265676856e-04</internalNodes>
      <leafValues>
        -2.1117579936981201e-01 3.8158893585205078e-01</leafValues></_>
    <_>
      <internalNodes>
        0 -1 307199 -2.4653534637764096e-04</internalNodes>
      <leafValues>
        3.8234996795654297e-01 -2.3285645246505737e-01</leafValues></_>
    <_>
      <internalNodes>
        0 -1 331017 2.5377351790666580e-02</internalNodes>
      <leafValues>
        1.6289374232292175e-01 -7.9840970039367676e-01</leafValues></_>
    <_>
      <internalNodes>
        0 -1 276387 -4.5384600758552551e-02</internalNodes>
      <leafValues>
        -8.3285737037658691e-01 7.6221385970711708e-03</leafValues></_>
    <_>
      <internalNodes>
        0 -1 347473 2.0605719328159466e-05</internalNodes>
      <leafValues>
        -3.7741661071777344e-01 2.0541477203369141e-01</leafValues></_>
    <_>
      <internalNodes>
        0 -1 429767 -4.4921240769326687e-03</internalNodes>
      <leafValues>
        4.8732534050941467e-01 -1.5266482532024384e-01</leafValues></_>
    <_>
      <internalNodes>
        0 -1 429189 4.1157356463372707e-03</internalNodes>
      <leafValues>
        -1.6651207208633423e-01 4.9087470769882202e-01</leafValues></_>
    <_>
      <internalNodes>
        0 -1 292108 -4.4647715985774994e-03</internalNodes>
      <leafValues>
        4.8535013198852539e-01 -1.1513999104499817e-01</leafValues></_>
    <_>
      <internalNodes>
        0 -1 291984 -1.5917802229523659e-03</internalNodes>
      <leafValues>
        4.8989105224609375e-01 -1.4369301497936249e-01</leafValues></_>
    <_>
      <internalNodes>
        0 -1 195831 -4.3980903923511505e-02</internalNodes>
      <leafValues>
        -6.6166710853576660e-01 1.1064643412828445e-01</leafValues></_>
    <_>
      <internalNodes>
        0 -1 338063 -1.7914564523380250e-05</internalNodes>
      <leafValues>
        2.6186728477478027e-01 -2.3847642540931702e-01</leafValues></_>
    <_>
      <internalNodes>
        0 -1 337014 -5.1868299487978220e-04</internalNodes>
      <leafValues>
        -8.7386184930801392e-01 8.9273676276206970e-02</leafValues></_>
    <_>
      <internalNodes>
        0 -1 423355 8.4646686445921659e-04</internalNodes>
      <leafValues>
        -1.8236757814884186e-01 4.2128843069076538e-01</leafValues></_>
    <_>
      <internalNodes>
        0 -1 423355 -1.8606180674396455e-04</internalNodes>
      <leafValues>
        3.5152670741081238e-01 -2.0421557128429413e-01</leafValues></_>
    <_>
      <internalNodes>
        0 -1 335604 1.3806111383019015e-05</internalNodes>
      <leafValues>
        -2.1308645606040955e-01 2.9080894589424133e-01</leafValues></_>
    <_>
      <internalNodes>
        0 -1 334829 -7.0505705662071705e-04</internalNodes>
      <leafValues>
        4.1237786412239075e-01 -1.5860278904438019e-01</leafValues></_>
    <_>
      <internalNodes>
        0 -1 345715 2.5574228493496776e-04</internalNodes>
      <leafValues>
        -2.0085470378398895e-01 3.3756682276725769e-01</leafValues></_>
    <_>
      <internalNodes>
        0 -1 318670 8.6893711704760790e-04</internalNodes>
      <leafValues>
        -1.3153487443923950e-01 4.6145924925804138e-01</leafValues></_>
    <_>
      <internalNodes>
        0 -1 323923 -2.1279248176142573e-04</internalNodes>
      <leafValues>
        -6.7481911182403564e-01 1.0101663321256638e-01</leafValues></_>
    <_>
      <internalNodes>
        0 -1 323923 1.5089647786226124e-04</internalNodes>
      <leafValues>
        8.6604937911033630e-02 -6.8865245580673218e-01</leafValues></_>
    <_>
      <internalNodes>
        0 -1 383946 1.8543190890341066e-05</internalNodes>
      <leafValues>
        -2.0730167627334595e-01 3.5286054015159607e-01</leafValues></_></weakClassifiers></stage9>
</opencv_storage>
