<?xml version="1.0"?>
<opencv_storage>
<stage4>
  <maxWeakCount>14</maxWeakCount>
  <stageThreshold>-1.7921218872070312e+00</stageThreshold>
  <weakClassifiers>
    <_>
      <internalNodes>
        0 -1 557624 1.2255381792783737e-02</internalNodes>
      <leafValues>
        -6.2772101163864136e-01 4.8228043317794800e-01</leafValues></_>
    <_>
      <internalNodes>
        0 -1 864569 -3.8706988096237183e-02</internalNodes>
      <leafValues>
        5.1740109920501709e-01 -4.3381071090698242e-01</leafValues></_>
    <_>
      <internalNodes>
        0 -1 641898 -4.1217770194634795e-04</internalNodes>
      <leafValues>
        6.5290749073028564e-01 -2.8826034069061279e-01</leafValues></_>
    <_>
      <internalNodes>
        0 -1 656338 -1.7056914512068033e-03</internalNodes>
      <leafValues>
        5.8469718694686890e-01 -2.9876908659934998e-01</leafValues></_>
    <_>
      <internalNodes>
        0 -1 621073 -2.6113196508958936e-04</internalNodes>
      <leafValues>
        6.7263591289520264e-01 -2.2759094834327698e-01</leafValues></_>
    <_>
      <internalNodes>
        0 -1 865714 -3.3234053989872336e-04</internalNodes>
      <leafValues>
        5.8879756927490234e-01 -2.7236908674240112e-01</leafValues></_>
    <_>
      <internalNodes>
        0 -1 824224 -1.0979496437357739e-05</internalNodes>
      <leafValues>
        3.6707144975662231e-01 -4.8653978109359741e-01</leafValues></_>
    <_>
      <internalNodes>
        0 -1 864064 6.2074518064036965e-04</internalNodes>
      <leafValues>
        -2.6700848340988159e-01 5.5927342176437378e-01</leafValues></_>
    <_>
      <internalNodes>
        0 -1 519577 -1.3813825789839029e-03</internalNodes>
      <leafValues>
        4.7881212830543518e-01 -2.8809317946434021e-01</leafValues></_>
    <_>
      <internalNodes>
        0 -1 604514 -1.9729712512344122e-03</internalNodes>
      <leafValues>
        5.6950181722640991e-01 -2.3268580436706543e-01</leafValues></_>
    <_>
      <internalNodes>
        0 -1 722745 -1.9079362391494215e-04</internalNodes>
      <leafValues>
        -9.3374848365783691e-01 1.9388419389724731e-01</leafValues></_>
    <_>
      <internalNodes>
        0 -1 758316 -9.3809285317547619e-06</internalNodes>
      <leafValues>
        3.0297735333442688e-01 -4.9031415581703186e-01</leafValues></_>
    <_>
      <internalNodes>
        0 -1 556233 3.0999520095065236e-04</internalNodes>
      <leafValues>
        -4.2332628369331360e-01 3.5925874114036560e-01</leafValues></_>
    <_>
      <internalNodes>
        0 -1 603508 -3.3800024539232254e-04</internalNodes>
      <leafValues>
        7.0212018489837646e-01 -2.4776129424571991e-01</leafValues></_></weakClassifiers></stage4>
</opencv_storage>
