<?xml version="1.0"?>
<opencv_storage>
<stage3>
  <maxWeakCount>9</maxWeakCount>
  <stageThreshold>-1.6978343725204468e+00</stageThreshold>
  <weakClassifiers>
    <_>
      <internalNodes>
        0 -1 601388 6.8012607516720891e-04</internalNodes>
      <leafValues>
        -6.7090994119644165e-01 4.1463413834571838e-01</leafValues></_>
    <_>
      <internalNodes>
        0 -1 410347 3.3114328980445862e-03</internalNodes>
      <leafValues>
        -4.9483990669250488e-01 5.4767644405364990e-01</leafValues></_>
    <_>
      <internalNodes>
        0 -1 791979 1.5191170678008348e-04</internalNodes>
      <leafValues>
        -5.0855213403701782e-01 4.3435063958168030e-01</leafValues></_>
    <_>
      <internalNodes>
        0 -1 805346 2.2164569236338139e-04</internalNodes>
      <leafValues>
        -2.7492412924766541e-01 7.2754472494125366e-01</leafValues></_>
    <_>
      <internalNodes>
        0 -1 680374 -5.4380064830183983e-04</internalNodes>
      <leafValues>
        7.1863824129104614e-01 -2.7024385333061218e-01</leafValues></_>
    <_>
      <internalNodes>
        0 -1 698159 2.8361805016174912e-04</internalNodes>
      <leafValues>
        -2.6556116342544556e-01 6.7230594158172607e-01</leafValues></_>
    <_>
      <internalNodes>
        0 -1 598473 -1.6064419469330460e-04</internalNodes>
      <leafValues>
        5.9668070077896118e-01 -3.0182963609695435e-01</leafValues></_>
    <_>
      <internalNodes>
        0 -1 888723 5.4176460253074765e-04</internalNodes>
      <leafValues>
        -2.1514651179313660e-01 6.7300683259963989e-01</leafValues></_>
    <_>
      <internalNodes>
        0 -1 774501 -9.5541836344636977e-06</internalNodes>
      <leafValues>
        3.6127009987831116e-01 -4.7087126970291138e-01</leafValues></_></weakClassifiers></stage3>
</opencv_storage>
