<?xml version="1.0"?>
<opencv_storage>
<stage1>
  <maxWeakCount>8</maxWeakCount>
  <stageThreshold>-1.8197362422943115e+00</stageThreshold>
  <weakClassifiers>
    <_>
      <internalNodes>
        0 -1 630880 3.2763522118330002e-02</internalNodes>
      <leafValues>
        -7.9262900352478027e-01 5.9306359291076660e-01</leafValues></_>
    <_>
      <internalNodes>
        0 -1 722681 -4.5128135752747767e-06</internalNodes>
      <leafValues>
        3.6390623450279236e-01 -7.1066671609878540e-01</leafValues></_>
    <_>
      <internalNodes>
        0 -1 772481 9.7510965133551508e-06</internalNodes>
      <leafValues>
        -5.1962918043136597e-01 4.8812597990036011e-01</leafValues></_>
    <_>
      <internalNodes>
        0 -1 602474 -5.6467845570296049e-04</internalNodes>
      <leafValues>
        7.2216570377349854e-01 -3.3344790339469910e-01</leafValues></_>
    <_>
      <internalNodes>
        0 -1 754156 1.9204569980502129e-04</internalNodes>
      <leafValues>
        -2.4650923907756805e-01 7.6466363668441772e-01</leafValues></_>
    <_>
      <internalNodes>
        0 -1 850777 -1.0079083731397986e-03</internalNodes>
      <leafValues>
        7.6697742938995361e-01 -2.2736713290214539e-01</leafValues></_>
    <_>
      <internalNodes>
        0 -1 850777 8.2341721281409264e-04</internalNodes>
      <leafValues>
        -2.6533260941505432e-01 7.0752227306365967e-01</leafValues></_>
    <_>
      <internalNodes>
        0 -1 722699 -1.3947888510301709e-04</internalNodes>
      <leafValues>
        -9.5919632911682129e-01 2.8150099515914917e-01</leafValues></_></weakClassifiers></stage1>
</opencv_storage>
